tree
version=v4
num_class=1
num_tree_per_iteration=1
label_index=0
max_feature_idx=17
objective=binary sigmoid:1
feature_names=age gender income location study_type condition visit_adherence_rate tenure_months last_visit_gap_days num_medications has_side_effects transport_support monthly_stipend contact_frequency support_group_member language_barrier device_usage_compliance survey_score_avg
feature_infos=[18:85] [0:2] [20000:150000] [0:2] [0:2] [0:7] [0.29999999999999999:1] [1:36] [0.0083068012332128995:90] [0:8] [0:1] [0:1] [100:1000] [1:8] [0:1] [0:1] [0.20000000000000001:1] [2.2357123079745684:10]
tree_sizes=3415 3414 3432 3431 3428 3416 3432 3433 3429 3438 3425 3436 3426 3437 3427 3417 3435 3435 3435 3418 3436 3425 3440 3444 3433 3420 3433 3449 3426 3446 3430 3426 3426 3442 3439 3438 3425 3437 3443 3433 3437 3417 3414 3434 3407 3435 3440 3430 3415 3428 3420 3426 3416 3412 3396 3430 3428 3425 3401 3419 3398 3389 3442 3402 3425 3444 3414 3431 3407 3436 3413 3417 3407 3417 3418 3403 3376 3405 3399 3399 3422 3426 3421 3408 3410 3394 3405 3398 3386 3395 3410 3417 3411 3411 3408 3407 3408 3426 3407 3401 3387 3383 3414 3398 3412 3408 3398 3396 3401 3390 3402 3379 3392 3412 3408 3397 3400 3383 3404 3406 3404 3406 3396 3401 3398 3417 3415 3414 3396 3391 3394 3407 3381 3407 3387 3384 3421 3400 3409 3417 3396 3393 3402 3423 3406 3420 3421 3437 3404 3388 3378 3402 3409 3400 3398 3410 3413 3405 3399 3432 3402 3383 3401 3400 3403 3380 3407 3403 3388 3403 3412 3392 3394 3416 3395 3407 3410 3411 3409 3400 3396 3393 3409 3396 3390 3384 3408 3410 3382 3418 3395 3392 3387 3398 3388 3406 3403 3398 3399 3404 3379 3385 3405 3424 3402 3391 3396 3399 3410 3410 3405 3398 3386 3409 3387 3396 3418 3400 3413 3408 3398 3407 3414 3386 3424 3374 3407 3367 3404 3383 3404 3407 3416 3398 3398 3388 3390 3397 3391 3391 3387 3385 3386 3390 3387 3394 3406 3417 3406 3412 3388 3393 3391 3405 3390 3402 3396 3407 3394 3396 3395 3410 3401 3414 3395 3387 3400 3392 3391 3417 3395 3398 3388 3398 3406 3414 3391 3382 3406 3391 3407 3374 3407 3378 3400 3419 3404 3416 3404 3390 3399 3386 3402 3393 3384 3400 3430 3407 3406 3405 3384 3388 3387 3409 3405 3402 3401 3399 3417 3407 3418 3409 3434 3387 3425 3368 3398 3385 3394 3404 3395 3382 3395 3410 3403 3399 3389 3401 3399 3413 3411 3420 3406 3394 3398 3389 3400 3398 3402 3404 3423 3403 3396 3418 3410 3384 3392 3420 3392 3404 3394 3393 3406 3397 3396 3417 3400 3409 3411 3396 3385 3403 3388 3410 3395 3398 3405 3422 3377 3403 3398 3387 3397 3384 3408 3396 3374 3393 3390 3389 3384 3378 3409 3389 3394 3370 3383 3389 3409 3405 3401 3398 3398 3416 3401 3400 3387 3392 3400 3391 3411 3411 3406 3400 3387 3402 3386 3397 3386 3393 3417 3402 3402 3393 3401 3398 3394 3400 3389 3400 3385 3400 3400 3399 3387 3402 3407 3374 3404 3401 3396 3397 3390 3404 3407 3399 3404 3375 3400 3397 3409 3390 3408 3393 3415 3414 3410 3413 3396 3418 3394 3388 3403 3393 3397 3402 3401 3404 3416 3418 3401 3416 3415 3388 3405 3381 3372 3372 3368 3418 3405 3387 3402 3392 3388 3409 3405 3415 3400 3396 3396 3416 3421 3401 3438 3383 3400 3402 3409 3382 3404 3381 3397 3395 3383 3409 3397 3389 3386 3389 3381 3417 3412 3398 3425 3384 3398 3415 3403 3384 3393 3397 3409 3396 3404 3409 3404 3411 3399 3411 3404 3395 3423 3389 3413 3393 3394 3414 3383 3388 3399 3412 3415 3400 3402 3391 3407 3399 3380 3399 3398 3392 3391 3407 3416 3422 3387 3395 3399 3367 3397 3422 3412 3404 3416 3404 3394 3411 3418 3385 3399 3393 3392 3381 3408 3414 3375 3404 3387 3416 3394 3373 3393 3392 3406 3422 3419 3401 3410 3388 3407 3418 3422 3410 3404 3374 3369 3396 3385 3375 3399 3391 3405 3392 3395 3417 3401 3379 3414 3398 3398 3403 3410 3399 3399 3399 3388 3394 3398 3411 3400 3388 3412 3384 3379 3388 3388 3391 3393 3392 3398 3404 3399 3396 3404 3418 3407 3400 3419 3425 3389 3390 3395 3402 3383 3408 3388 3390 3419 3410 3406 3422 3397 3421 3415 3388 3392 3405 3390 3407 3406 3395 3407 3407 3388 3391 3395 3385 3392 3375 3394 3411 3419 3394 3409 3403 3417 3415 3399 3403 3418 3388 3384 3399 3385 3404 3401 3396 3420 3396 3399 3401 3392 3404 3414 3400 3396 3396 3388 3402 3357 3376 3386 3375 3364 3407 3421 3405 3400 3414 3378 3394 3394 3404 3391 3406 3405 3391 3396 3391 3406 3408 3409 3403 3403 3416 3391 3377 3402 3368 3388 3405 3403 3410 3398 3419 3392 3405 3402 3411 3418 3422 3402 3399 3426 3390 3393 3398 3383 3407 3391 3396 3395 3382 3394 3402 3391 3395 3423 3380 3396 3388 3408 3397 3397 3408 3411 3377 3363 3405 3392 3381 3394 3386 3408 3393 3372 3395 3395 3389 3394 3407 3403 3399 3381 3398 3410 3403 3401 3402 3430 3400 3406 3407 3399 3396 3400 3388 3395 3387 3399 3400 3398 3403 3401 3392 3393 3411 3406 3401 3393 3400 3403 3400 3389 3397 3394 3393 3395 3395 3427 3406 3390 3422 3406 3405 3402 3408 3383 3375 3415 3421 3400 3421 3380 3419 3422 3432 3395 3401 3409 3403 3414 3401 3389 3406 3406 3386 3403 3388 3398 3413 3423 3402 3415 3414 3421 3414 3408 3409 3389 3389 3408 3397 3380 3423 3381 3397 3382 3424 3399 3387 3394 3384 3384 3392 3408 3386 3414 3398 3392 3399 3374 3387 3397 3389 3377 3390 3399 3383 3394 3401 3393 3383 3389 3386 3392 3406 3393 3419 3426 3401 3408 3428 3388 3423 3421 3388 3405 3397 3406 3398 3429 3402 3398 3404 3375 3416 3379 3425 3384 3391 3397 3412 3393 3415 3406 3413 3405 3402 3405 3401 3408 3401 3410 3401 3384 3399 3387 3394 3420 3412 3402 3407 3398 3396 3391 3417 3395 3405 3399 3417 3414 3403 3401 3393 3393 3400 3400 3413 3402 3430 3408 3402 3401 3414 3385 3412 3388 3409 3395 3405 3410 3402 3402 3415 3418 3404 3416 3418 3405 3400 3404 3391 3416 3394 3395 3405 3410 3404 3366 3383 3395 3407 3426 3383 3378 3403 3400 3384 3380 3407 3395 3423 3401 3409 3392 3408 3406 3409

Tree=0
num_leaves=31
num_cat=0
split_feature=10 8 8 7 8 17 7 16 13 7 7 8 8 16 16 7 8 17 13 7 13 17 13 17 17 13 16 16 2 2
split_gain=477.187 150.565 143.829 45.9202 42.5524 35.9023 34.747 31.3379 30.2014 28.1099 23.8299 23.5674 20.8885 19.7583 19.3077 15.7889 14.8747 14.1537 13.9403 18.5276 13.5353 13.4733 13.2713 12.3831 11.9964 11.4687 12.7406 11.1702 11.145 10.8139
threshold=1.0000000180025095e-35 12.099592755847853 17.478723726592477 5.4216471116857408 48.28754052246321 8.1705065023483439 19.373324417905589 0.6831060561215947 2.1148188506825458 12.946187206949453 26.871966944935071 7.5174405743393038 34.735294060956122 0.93362394466097298 0.98701847089232386 10.070599249096764 2.6680096497408723 6.2516143597702563 2.0254700382350985 16.279588494353472 1.4288228251241035 9.1198548348574207 5.1371763214088464 7.9648989108583264 8.8445781073606025 2.2252729970932728 0.76805581815248158 0.77404212701586284 86430.231217895664 96469.369315664531
decision_type=2 2 2 2 2 2 2 2 2 2 2 2 2 2 2 2 2 2 2 2 2 2 2 2 2 2 2 2 2 2
left_child=1 7 6 23 5 14 11 -1 -5 13 16 -2 17 22 15 -3 -9 -10 19 -6 -16 -18 -7 -4 29 26 -13 -19 -28 -8
right_child=2 4 3 8 18 9 24 10 12 -11 -12 25 -14 -15 20 -17 21 27 -20 -21 -22 -23 -24 -25 -26 -27 28 -29 -30 -31
leaf_value=-0.10140571252881488 -0.085635261475251884 -0.056443229137283987 -0.018619968789147054 -0.081717436031539817 -0.067559318888518058 -0.090276159057286698 -0.08473255228671854 -0.14368555586754117 -0.02411219552530694 -0.1166101597198957 -0.15822512847467679 -0.05275400655340675 -0.032127187911771084 -0.10602899497333357 -0.14165409658273237 -0.086523416914997819 -0.11017372979653933 -0.047805369583766785 -0.05210320421239107 -0.15736144395027332 -0.090204976573328419 -0.12880029019500017 -0.059006735549303274 -0.04122604403911935 -0.11750957138093618 -0.059709145517012063 -0.08001087404413959 -0.073708235014750906 -0.12558558794050412 -0.15158140136388093
leaf_weight=140.73624926805496 256.26973049342632 94.073698535561562 117.52974008023739 99.313878029584885 20.461653262376789 198.62775605916977 89.582116112112999 81.347548335790634 24.953235685825348 218.09127989411354 57.891506791114807 33.936400532722473 106.79984873533249 206.86232383549213 14.722409054636953 81.347548335790634 180.66142636537552 65.377477496862411 81.347548335790634 7.9850354194641104 97.068086817860603 209.85671211779118 40.923306524753571 125.01571078598499 61.634492143988609 246.53796857595444 67.872801065444946 114.53535179793835 16.718667909502983 6.4878412783145896
leaf_count=564 1027 377 471 398 82 796 359 326 100 874 232 136 428 829 59 326 724 262 326 32 389 841 164 501 247 988 272 459 67 26
internal_value=-0.0861709 -0.103829 -0.064822 -0.0475245 -0.0921125 -0.0955127 -0.0793327 -0.122378 -0.0577063 -0.101897 -0.127949 -0.0740128 -0.050055 -0.0947093 -0.0807411 -0.0703922 -0.124235 -0.0594011 -0.0626388 -0.0927669 -0.0969806 -0.120183 -0.0849343 -0.0302719 -0.100293 -0.065854 -0.0786352 -0.0642955 -0.0890183 -0.089247
internal_weight=3164.57 1732 1432.57 653.525 1061.51 951.716 779.04 670.493 410.98 664.505 529.757 621.336 311.666 446.413 287.212 175.421 471.866 204.866 109.794 28.4467 111.79 390.518 239.551 242.545 157.704 365.066 118.528 179.913 84.5915 96.07
internal_count=12682 6941 5741 2619 4254 3814 3122 2687 1647 2663 2123 2490 1249 1789 1151 703 1891 821 440 114 448 1565 960 972 632 1463 475 721 339 385
is_linear=0
shrinkage=1


Tree=1
num_leaves=31
num_cat=0
split_feature=10 6 6 8 7 8 7 8 8 13 7 8 6 7 8 13 12 6 15 17 6 8 7 12 0 8 6 0 7 0
split_gain=430.69 208.547 179.026 50.5784 43.108 35.1028 31.0418 30.7113 21.7639 19.4221 17.9955 15.6042 14.9204 14.0287 13.8149 12.6258 12.3397 11.9813 11.6909 11.6337 11.516 11.4663 11.6456 11.3063 14.7299 10.3484 12.2253 10.4962 9.96512 9.51245
threshold=1.0000000180025095e-35 0.77754542421120687 0.79376756825433359 23.125767140374506 19.373324417905589 17.01392103657032 27.615608140802212 26.163301656242208 23.311245326407356 5.0621675970029942 21.190767420276071 50.10934039324686 0.94309018547562296 25.751134291166359 31.144954679325473 1.7082986640470141 647.91309203198068 0.90898487414070062 1.0000000180025095e-35 8.6104936853576248 0.53972366247248327 11.388073331585874 11.899138938937055 448.87188404468685 58.351035068476811 49.193098728286152 0.91176369626224185 49.107663192637382 13.19934348793281 79.980450088054553
decision_type=2 2 2 2 2 2 2 2 2 2 2 2 2 2 2 2 2 2 2 2 2 2 2 2 2 2 2 2 2 2
left_child=1 8 7 6 5 19 9 10 21 16 15 17 18 -10 -14 28 -3 29 -7 -4 -17 23 -23 24 -1 26 -6 -28 -2 -5
right_child=2 3 4 11 25 12 -8 -9 13 -11 -12 -13 14 -15 -16 20 -18 -19 -20 -21 -22 22 -24 -25 -26 -27 27 -29 -30 -31
leaf_value=-0.037963968885309618 0.027906133620367708 -0.029743102547384104 0.012855699687073974 -0.0043635613600335179 0.0054869501643028257 0.047645602311525766 -0.060359227390816374 0.06379656626133029 0.026529835585820068 -0.0097341191247090585 0.0095097483616545311 0.014707604272781014 0.0064961725229253572 -0.010931421246974589 0.036380371284907925 0.073193989008516036 -0.046016097979614423 -0.022759292215083313 0.00078599614622800677 -0.0024911595441396116 0.041702558708476306 0.014518765984511368 -0.0095279389154464544 -0.042409785610553002 0.057420032910814191 0.034228524177964556 -0.038402318604789473 -0.010526082235238529 -0.041798992215875165 0.058714267151885095
leaf_weight=7.9714089334011105 24.467953160405163 592.3015530705452 292.56279374659061 76.316794246435165 56.642579451203346 105.18425174057484 94.311779752373695 171.1627946048975 206.86309424042702 102.69025377929211 49.662778466939926 54.18547885119915 96.671503126621246 28.425682097673416 64.459342166781425 35.976039215922356 145.01850838959217 163.84558208286762 15.238796502351759 213.67522317171097 150.37133933603764 137.23114754259586 79.526650741696358 26.904622972011566 8.2225842326879484 11.742387697100638 57.62086795270443 81.57183825969696 6.4866524636745444 6.4848136454820624
leaf_count=32 98 2377 1172 306 227 421 379 685 829 412 199 217 387 114 258 144 582 657 61 856 602 550 319 108 33 47 231 327 26 26
internal_value=0.000362942 -0.0164284 0.0206309 -0.0274189 0.00890795 0.0142492 -0.0331601 0.047264 0.0109877 -0.0301064 0.0366642 -0.00958783 0.0284016 0.0220041 0.0184512 0.0428702 -0.0329437 -0.0149253 0.0417158 0.00637803 0.0477823 0.00101286 0.00569623 -0.0225414 0.0104678 -0.0113629 -0.0140966 -0.0220659 0.0132992 0.000576535
internal_weight=3163.8 1730.3 1433.5 1235.15 995.37 787.792 934.322 438.128 495.145 840.01 266.965 300.833 281.554 235.289 161.131 217.302 737.32 246.647 120.423 506.238 186.347 259.856 216.758 43.0986 16.194 207.578 195.835 139.193 30.9546 82.8016
internal_count=12682 6941 5741 4956 3987 3155 3750 1754 1985 3371 1069 1206 1127 943 645 870 2959 989 482 2028 746 1042 869 173 65 832 785 558 124 332
is_linear=0
shrinkage=0.05


Tree=2
num_leaves=31
num_cat=0
split_feature=10 6 6 16 6 16 6 16 13 6 6 12 13 6 17 16 9 12 2 12 2 17 13 17 9 12 16 4 6 2
split_gain=388.888 188.63 161.45 35.2985 25.1086 24.4619 19.8283 17.1741 16.8338 15.4656 14.3827 13.6994 12.8306 10.8957 10.7333 10.1987 9.95576 9.81794 9.37933 8.99754 8.59878 7.85161 7.81428 7.80665 7.67668 7.54403 7.30593 10.233 10.1279 7.29991
threshold=1.0000000180025095e-35 0.77754542421120687 0.79376756825433359 0.77863133510765292 0.93674073662636814 0.76409258770138189 0.56673619887979454 0.61052051580140276 5.1180046889691289 0.71309809710017258 0.96376807304338874 796.27139978343973 4.473416837903927 0.73887538105436479 9.8635265186568528 0.6831060561215947 3.5000000000000004 658.99416674620852 77601.729868008624 388.71108613346263 42984.187600634359 6.1349294822265366 3.3494066034553116 6.7820987683893215 3.5000000000000004 359.10368613985094 0.93641583644895687 1.0000000180025095e-35 0.99384599433795651 65342.63279281836
decision_type=2 2 2 2 2 2 2 2 2 2 2 2 2 2 2 2 2 2 2 2 2 2 2 2 2 2 2 2 2 2
left_child=1 7 6 8 22 23 -2 -1 -3 11 20 -9 15 18 19 25 -10 26 -11 -6 -7 -22 -5 -4 -19 -8 27 -12 -29 -28
right_child=2 3 5 4 14 10 12 9 16 13 17 -13 -14 -15 -16 -17 -18 24 -20 -21 21 -23 -24 -25 -26 -27 29 28 -30 -31
leaf_value=0.030109221142820199 0.061442874197452063 -0.017513758414135116 0.038823082043292094 -0.0267867335911708 -0.01877074532747082 0.03670334975232166 0.094550353478712379 0.014267014768566203 0.030006144349695615 -0.045124797501296485 0.018935580956121762 -0.038277700912589765 0.052800680049894889 0.003534991765773095 -0.04733179624743427 0.024939840944278101 -0.021955473346929044 -0.0056842864321242914 0.0018760083863579359 -0.037596308139802394 0.036632181203956497 0.0059694691898965055 -0.010118843268190578 0.016743803427557859 -0.038672989306883086 0.042165032243356285 0.015931145873723098 0.016386342039093987 -0.026509594287291341 -0.0023254366591787118
leaf_weight=90.624849855899811 127.95556649565697 353.40182569622993 47.209197595715523 177.36220434308052 85.050797045230865 30.96540156006813 8.247147008776663 282.73763003945351 31.912110224366188 29.911752283573151 24.212586537003517 12.973844975233076 99.96672922372818 62.577786758542061 205.53559599816799 160.91081750392914 12.962738484144209 41.925627410411835 16.45312936604023 250.1359981149435 22.98180778324604 228.00551219284534 116.51076829433441 263.42699508368969 30.438944876194 41.236729815602303 100.8407197445631 17.225781172513962 68.396006569266319 119.80703896284103
leaf_count=363 512 1420 189 713 342 124 33 1133 128 120 97 52 400 251 827 644 52 168 66 1006 92 913 468 1055 122 165 404 69 274 480
internal_value=0.000344019 -0.0156278 0.0195954 -0.0260979 -0.0319423 0.0084617 0.0448805 0.0104349 -0.0138508 0.00602868 0.00318268 0.0119617 0.0380522 -0.0100758 -0.0383358 0.0310446 0.0149963 -0.00287946 -0.028446 -0.0328195 0.0118441 0.00877712 -0.0201785 0.0200993 -0.0195604 0.0508957 0.000773116 -0.00976382 -0.0178796 0.00601821
internal_weight=3161.9 1728.15 1433.75 1232.87 834.595 995.436 438.317 495.279 398.277 404.654 684.799 295.711 310.361 108.943 540.722 210.395 44.8748 402.847 46.3649 335.187 281.953 250.987 293.873 310.636 72.3646 49.4839 330.482 109.834 85.6218 220.648
internal_count=12682 6941 5741 4956 3356 3987 1754 1985 1600 1622 2743 1185 1242 437 2175 842 180 1614 186 1348 1129 1005 1181 1244 290 198 1324 440 343 884
is_linear=0
shrinkage=0.05


Tree=3
num_leaves=31
num_cat=0
split_feature=10 6 6 7 7 16 6 16 7 7 13 6 6 7 0 6 0 16 17 13 2 13 6 2 3 16 7 6 16 17
split_gain=351.233 170.662 145.87 38.8324 34.3964 32.614 20.9061 20.2656 19.2183 18.1146 19.9932 15.5545 12.8563 12.0239 12.0739 11.6949 11.5798 11.5447 11.174 10.6601 10.5463 9.98095 9.28966 9.27196 9.25525 8.95158 8.8798 8.85569 9.06435 8.77725
threshold=1.0000000180025095e-35 0.77754542421120687 0.79376756825433359 19.373324417905589 27.615608140802212 0.77863133510765292 0.93799228451326255 0.76409258770138189 10.149976818986358 15.589263335927496 1.8148100028233152 0.6109607744605513 0.90451298567788108 11.899138938937055 42.577594738851971 0.66741989904527144 55.59102102426202 0.89823138106667688 9.2672440963847258 2.0002297116178895 61019.423761580729 5.5490151559255603 0.88387749361234891 51301.250578225452 1.0000000180025095e-35 0.59182437742676941 20.919258129462467 0.91176369626224185 0.54899764775514492 8.2020454478157081
decision_type=2 2 2 2 2 2 2 2 2 2 2 2 2 2 2 2 2 2 2 2 2 2 2 2 2 2 2 2 2 2
left_child=1 8 9 7 5 12 13 -4 11 15 -11 -1 22 -7 -15 29 17 -13 -8 -9 -12 -17 26 -14 -22 -10 -3 -5 -29 -2
right_child=2 4 3 27 -6 6 18 19 25 10 20 16 23 14 -16 21 -18 -19 -20 -21 24 -23 -24 -25 -26 -27 -28 28 -30 -31
leaf_value=0.032843713654557377 0.065451304283075537 0.0041623894846159947 0.025152729236408274 0.0051439737286080034 -0.049633686916792631 -0.010198137255977291 -0.026090819240910796 -0.0027678591150240364 0.022840456944346301 -0.026012027334161428 0.055144249225155983 0.015923263643488245 0.0013902349265558645 0.0061432906559430274 -0.043795889353066858 0.033638350526877629 0.021893694188085355 -0.021492396650232903 -0.041367637697382061 0.01239945851485731 0.05502468027992799 0.074161180943103325 0.038134456234052802 -0.020787290401524286 0.011261285708678383 -0.0056565634569046667 -0.050747401671717741 0.014551823267515912 -0.022466279249160739 0.041411180533779186
leaf_weight=113.17594160139561 117.06503793597221 71.685124650597572 241.88756223022938 59.181825891137123 125.66094397008419 193.90185764431953 225.84366782009602 166.76441285014153 32.465998396277428 15.98196631669998 37.721729308366776 37.952222928404808 62.177088379859924 15.153962105512617 60.123099893331528 128.43217240273952 84.392950728535652 45.135029420256615 254.67137002944946 379.41827838122845 15.985664263367651 17.234505459666252 18.166561186313629 194.72704906761646 49.461080640554428 182.27517303824425 8.2056099027395231 18.960900828242302 129.3408143222332 56.194744125008583
leaf_count=453 469 288 968 237 508 780 910 668 130 64 151 152 250 61 242 514 338 181 1028 1519 64 69 73 783 198 731 33 76 519 225
internal_value=0.000326329 -0.0148688 0.0186172 0.00803741 -0.0248463 -0.0220266 -0.0279382 0.0131043 0.00991031 0.0426604 0.026026 0.0185246 -0.00954094 -0.0167825 -0.0337427 0.048875 0.00884843 -0.00440184 -0.0341875 0.00776846 0.0340873 0.0384328 0.00586127 -0.0154198 0.0219507 -0.00134819 -0.00147742 -0.0112079 -0.0177334 0.0576542
internal_weight=3159.34 1725.71 1433.63 995.554 1230.32 1104.66 749.694 788.07 495.397 438.077 119.15 280.656 354.961 269.179 75.2771 318.926 167.48 83.0873 480.515 546.183 103.168 145.667 98.0573 256.904 65.4467 214.741 79.8907 207.484 148.302 173.26
internal_count=12682 6941 5741 3987 4956 4448 3021 3155 1985 1754 477 1124 1427 1083 303 1277 671 333 1938 2187 413 583 394 1033 262 861 321 832 595 694
is_linear=0
shrinkage=0.05


Tree=4
num_leaves=31
num_cat=0
split_feature=10 8 8 7 8 17 7 7 13 7 8 8 7 13 13 7 12 17 17 13 12 17 5 2 13 12 0 17 8 8
split_gain=317.362 113.448 108.028 38.2389 35.2712 28.2968 25.8361 25.216 23.2622 22.2057 18.3092 18.051 14.3345 14.3262 12.0362 16.421 11.6618 10.6667 10.0899 10.0096 11.1491 9.98891 9.62532 9.60885 9.09316 9.0066 9.00651 9.11713 8.46325 8.21508
threshold=1.0000000180025095e-35 12.099592755847853 17.478723726592477 5.4216471116857408 48.28754052246321 8.1705065023483439 19.373324417905589 26.871966944935071 2.1797012032171392 12.946187206949453 34.735294060956122 7.5174405743393038 10.070599249096764 5.0996369466682916 2.0254700382350985 16.279588494353472 481.92463654436796 6.2516143597702563 8.8445781073606025 5.2395634468666241 518.34817547607452 7.9648989108583264 6.5000000000000009 96469.369315664531 1.2172079786691081 359.10368613985094 55.59102102426202 9.9829922940204252 0.82545790395959984 23.662662776823115
decision_type=2 2 2 2 2 2 2 2 2 2 2 2 2 2 2 2 2 2 2 2 2 2 2 2 2 2 2 2 2 2
left_child=1 7 6 21 5 12 11 19 25 13 17 -2 29 26 15 -6 -15 -10 23 20 -1 -4 -16 -8 -13 -5 -7 -28 -22 -3
right_child=2 4 3 8 14 9 18 -9 10 -11 -12 24 -14 16 22 -17 -18 -19 -20 -21 28 -23 -24 -25 -26 -27 27 -29 -30 -31
leaf_value=-0.022551058309147921 -0.00046278188498202348 0.0057775486426965995 0.058915387175728633 0.033107474850014786 0.018485142745442811 -0.017860227998518548 0.0014058931075877318 -0.058309615756373716 0.052402113211975243 -0.025901279335169627 0.047458918248174907 -0.0032750284968939315 -0.0064926026231413164 0.036160788841018358 0.038586985934295652 -0.066283406692969782 -0.0037299131734122777 0.017285497408155423 -0.028789135615577856 -0.0074676616450094178 -0.075088927603359445 0.038606846397884031 -0.0169592498409596 -0.061751696247593205 0.019933809940022938 -0.0037856901158525484 0.0065968341765643423 -0.016813179923684255 -0.034768282113287571 0.028586854575960996
leaf_weight=292.17905730009079 256.48032222688198 88.009422153234482 117.36212638020515 20.475324362516403 20.456834062933925 193.58124293386936 89.54423101246357 71.883254215121269 24.657857850193977 216.68361684679985 104.02413776516914 48.691007852554321 127.19295424222946 32.415875151753426 72.655652463436127 7.9268537610769263 42.138189285993576 175.77599386870861 61.447594121098518 59.321970269083977 13.80472783744335 125.075897783041 8.7369829416275007 6.4565033167600623 316.74980853497982 86.133018001914024 110.02428194880486 66.867190420627594 227.30692504346371 71.583221524953842
leaf_count=1180 1027 353 471 82 82 779 359 293 99 874 417 195 511 130 291 32 169 704 247 239 56 501 35 26 1268 345 442 269 919 287
internal_value=0.00030969 -0.0141512 0.0176962 0.032689 -0.00398394 -0.00708934 0.0051247 -0.0303434 0.0234006 -0.0127748 0.0304389 0.0097052 0.00602891 -0.00638351 0.0228475 -0.00518859 0.0136144 0.0216056 -0.0129683 -0.0269512 -0.0291185 0.048438 0.0326244 -0.00284175 0.0168415 0.00330005 -0.0104079 -0.00225244 -0.0370768 0.0160084
internal_weight=3155.64 1722.77 1432.87 653.504 1058.27 948.496 779.369 664.496 411.066 661.71 304.458 621.921 286.786 445.027 109.776 28.3837 74.5541 200.434 157.448 592.613 533.291 242.438 81.3926 96.0007 365.441 106.608 370.473 176.891 241.112 159.593
internal_count=12682 6941 5741 2619 4254 3814 3122 2687 1647 2663 1220 2490 1151 1789 440 114 299 803 632 2394 2155 972 326 385 1463 427 1490 711 975 640
is_linear=0
shrinkage=0.05


Tree=5
num_leaves=31
num_cat=0
split_feature=10 8 8 16 7 7 7 7 17 8 13 16 16 7 8 8 17 13 17 16 16 2 12 13 0 13 8 17 0 17
split_gain=282.783 95.1318 85.5116 40.2147 35.0685 28.9751 26.5868 26.5424 25.5486 21.3603 17.281 17.1471 15.3578 13.5831 13.5176 13.4111 12.1263 11.5677 12.0877 11.4398 11.2014 10.7062 10.5825 10.4952 10.5946 9.73903 9.68243 9.62629 9.57376 11.2815
threshold=1.0000000180025095e-35 23.311245326407356 17.916511291520042 0.80235477999879834 22.75974444456492 7.3088098218788531 16.451646750289321 4.5924728457747817 8.1705065023483439 11.648873908088854 4.2302234625921393 0.5566880094669423 0.80861782595485621 9.1950402151557018 42.520575436672615 5.6725586452717698 9.5790085997321093 2.1797012032171392 9.2183835466459758 0.76634512465460347 0.51872494586185203 47143.671688629496 513.32866405295488 1.1613969767995453 79.357965528103094 6.3130385622796981 50.10934039324686 8.5322718099512933 81.574068625131176 9.1746126785102842
decision_type=2 2 2 2 2 2 2 2 2 2 2 2 2 2 2 2 2 2 2 2 2 2 2 2 2 2 2 2 2 2
left_child=1 3 5 4 10 16 8 27 20 13 -1 -7 17 22 -10 -12 19 18 -9 -2 -4 -18 -5 -14 -25 -13 -22 -3 29 -8
right_child=2 7 6 9 -6 11 28 12 14 -11 15 25 23 -15 -16 -17 21 -19 -20 -21 26 -23 -24 24 -26 -27 -28 -29 -30 -31
leaf_value=-0.0082090318772927492 0.035766352170768977 0.034740318395306412 0.078370400942099558 -0.0163347076328475 -0.041540362948070987 0.02271108826569572 0.01791106035207286 0.014269772103600082 0.017710798980588593 -0.018792048788543608 -0.026187414463878345 -0.0084931474982159055 -0.042575455771110438 -0.045161320017495149 0.049571550277659929 0.026816475038687712 0.040258752499525867 0.019834166436987516 -0.043880143682296646 0.014403661003081389 0.039879618929556042 -0.011209963553615671 -0.038586944486157633 -0.010084553526773317 0.03941182199501838 0.027619748787418741 0.070891600968980326 0.010778300845352534 0.066748726437151795 -0.013894136096691351
leaf_weight=263.91250732541084 89.922748982906342 72.125619634985924 25.601779401302338 113.28702791035175 66.477873459458351 57.665419772267342 121.45835088193417 18.67280013859272 174.93306119740009 364.65611033141613 14.386123791337011 353.39345702528954 23.51515419781208 191.12106038630009 41.115846559405327 70.018175169825554 12.238156229257582 93.97277444601059 17.140388205647469 206.76247103512287 211.14343723654747 57.935999989509583 101.12051855027676 191.44770427048206 11.45836755633354 19.710733890533447 28.575213298201561 100.05940492451191 7.9788562804460517 36.188370078802109
leaf_count=1064 360 289 103 459 270 231 487 75 701 1471 58 1417 95 779 165 281 49 377 69 828 849 232 411 770 46 79 115 402 32 145
internal_value=0.000792579 -0.012946 0.017087 -0.0208134 -0.0082621 0.00613093 0.0305939 0.00469747 0.0365392 -0.0275731 -0.00191079 -0.00266354 -0.0030938 -0.0354691 0.0237742 0.0177823 0.0164575 0.0106191 -0.0135611 0.0208785 0.0469338 -0.00223398 -0.0268295 -0.0109541 -0.00728943 -0.00658534 0.0435763 0.0208156 0.0133145 0.0106101
internal_weight=3158 1713.37 1444.62 1184.98 414.795 797.629 646.995 528.392 481.369 770.185 348.317 430.77 356.207 405.529 216.049 84.4043 366.859 129.786 35.8132 296.685 265.32 70.1742 214.408 226.421 202.906 373.104 239.719 172.185 165.626 157.647
internal_count=12709 6916 5793 4793 1673 3196 2597 2123 1933 3120 1403 1727 1432 1649 866 339 1469 521 144 1188 1067 281 870 911 816 1496 964 691 664 632
is_linear=0
shrinkage=0.05


Tree=6
num_leaves=31
num_cat=0
split_feature=10 6 6 8 7 16 8 16 7 17 16 7 7 6 8 8 7 7 12 3 2 8 8 7 17 7 7 6 6 6
split_gain=255.592 123.972 122.88 37.0436 36.3441 29.0253 24.3774 19.4703 19.3582 17.6084 17.1084 17.0512 15.6659 14.5722 12.8655 12.8372 12.5915 12.5645 11.0757 12.2079 10.4996 10.4203 10.2908 10.0546 11.1345 9.97828 14.196 11.945 9.87903 9.78896
threshold=1.0000000180025095e-35 0.81658131512381305 0.77754542421120687 24.281487650216061 7.3976426060090494 0.90500009266689119 18.052124982982978 0.8728698183358623 26.871966944935071 8.1591107871708566 0.54899764775514492 4.1264131418770811 12.946187206949453 0.92357204497518175 50.10934039324686 41.84206165273428 16.451646750289321 23.282876945853264 619.45296579735043 1.5000000000000002 88622.558495049117 14.270718634956241 2.6680096497408723 25.406080328500099 6.9098515794699029 5.9920529048677453 2.9867914421914779 0.76047361692852866 0.63368008139245313 0.95761841047643859
decision_type=2 2 2 2 2 2 2 2 2 2 2 2 2 2 2 2 2 2 2 2 2 2 2 2 2 2 2 2 2 2
left_child=2 6 7 5 9 8 28 17 20 -3 -6 29 -7 -12 23 -11 -8 18 -1 -20 22 -9 -4 -15 -25 26 -23 -27 -2 -5
right_child=1 4 3 11 10 12 16 21 -10 15 13 -13 -14 14 -16 -17 -18 -19 19 -21 -22 25 -24 24 -26 27 -28 -29 -30 -31
leaf_value=0.031152637017425697 0.045451938744541238 0.027150221593955266 -0.032337398901186198 0.034929073533889937 0.020696623704727152 -0.027508222745797124 0.050586479010461455 -0.020563060438125072 -0.044250456332652864 0.0040388563049009079 0.0082855458795071737 -0.012554097684863591 -0.046246479453865334 -0.0094082901692585461 0.037669792662515349 0.054344783439592127 0.02735337197502893 -0.0085053630597757366 -0.018936962641841082 0.034460231402047937 -0.031029491962596158 0.00017186965513082275 -0.0053757986396446439 0.017270189196641618 -0.039251459208227202 -0.0079136878992442615 0.041343465188605356 0.060530812768715025 0.015930276717669906 -0.00059856954360813753
leaf_weight=147.2629781216383 35.343383431434631 201.61851996183395 40.375851660966873 34.661062076687813 64.916310027241707 336.09305588901043 238.55633993446827 51.551947921514511 53.967071190476418 218.80428789556026 118.57989925146103 193.41074398159981 166.94841381907463 250.00924980640411 12.478922352194784 13.461807936429976 77.18745331466198 33.816785916686058 26.451719388365746 17.979553639888763 62.771891117095947 49.183181539177895 286.69410805404186 10.218710169196127 59.142602026462555 121.82491159439087 36.455479189753532 6.7264901697635642 142.97625055909157 44.002094328403473
leaf_count=590 142 808 164 139 260 1366 964 208 222 876 475 780 684 1002 50 54 310 136 106 72 254 197 1159 41 238 489 146 27 573 177
internal_value=0.00075352 0.0162486 -0.0123234 -0.0208319 0.00567649 -0.0255044 0.0365604 0.0087884 -0.0161842 0.0163391 -0.00330067 -0.00457139 -0.033727 -0.00675919 -0.0121351 0.00695452 0.0449069 0.019594 0.024551 0.00267074 -0.0122989 -0.000381352 -0.00870413 -0.0140812 -0.0309244 0.00447605 0.0176982 -0.00433231 0.0217815 0.0150558
internal_weight=3153.47 1443.29 1710.18 1218.92 949.23 946.85 494.063 491.253 443.809 433.885 515.346 272.074 503.041 450.429 331.849 232.266 315.744 225.511 191.694 44.4313 389.842 265.742 327.07 319.371 69.3613 214.19 85.6387 128.551 178.32 78.6632
internal_count=12709 5793 6916 4945 3804 3849 1989 1971 1799 1738 2066 1096 2050 1806 1331 930 1274 904 768 178 1577 1067 1323 1281 279 859 343 516 715 316
is_linear=0
shrinkage=0.05


Tree=7
num_leaves=31
num_cat=0
split_feature=10 6 6 7 8 7 8 8 16 7 17 6 16 7 13 16 8 7 16 7 13 8 2 8 16 2 6 6 6 13
split_gain=231.119 112.484 112.418 32.9179 31.743 23.8883 22.7545 22.3069 18.3171 18.5967 16.0033 14.7708 14.3995 13.4571 13.404 12.5079 12.3773 12.2101 15.5965 11.5687 11.3014 11.2445 9.5266 9.3636 9.42046 9.49616 8.97404 8.96723 8.92258 8.88356
threshold=1.0000000180025095e-35 0.81658131512381305 0.90451298567788108 8.0434830437013094 23.311245326407356 9.1950402151557018 35.107751688691202 18.052124982982978 0.86560206654123584 21.696566611967686 8.1591107871708566 0.92357204497518175 0.60817645311998647 6.2703658343555961 2.5339715591324654 0.54556567521990751 41.84206165273428 28.961016928124057 0.79857809497033727 16.451646750289321 6.3130385622796981 50.10934039324686 76071.497542771816 23.125767140374506 0.91154723153167205 48484.469419972738 0.63368008139245313 0.52861631575535883 0.68486414913819216 4.4961217933366973
decision_type=2 2 2 2 2 2 2 2 2 2 2 2 2 2 2 2 2 2 2 2 2 2 2 2 2 2 2 2 2 2
left_child=2 7 4 10 8 23 17 26 9 29 -3 -5 -6 27 -11 -13 20 18 -7 -9 -12 -17 -16 24 25 -4 -2 -14 -10 -1
right_child=1 3 5 11 12 6 -8 19 28 14 16 15 13 -15 22 21 -18 -19 -20 -21 -22 -23 -24 -25 -26 -27 -28 -29 -30 -31
leaf_value=0.0049036972168255751 0.043311645931880763 0.025128667643868032 0.012413659283872371 0.010911564472434895 0.036485712077730985 -0.01600765809522749 0.0017748506960397115 0.048324484513548462 0.00021766564953429863 -0.071188042803630183 0.0016694002169833147 0.015691585580945754 0.047181146355700337 -0.00081624665590399189 -0.030404458285589443 -0.014267553335469356 0.052672863089093164 -0.054977610941056292 -0.04031208780736599 0.026027131527646442 0.062156660807059977 0.034664324142309931 0.030468788468891214 -0.0037494679398155659 -0.028277951684695043 -0.017604440356330239 0.015139866404981989 0.014102890509653977 -0.019977988057129539 0.030513094150790301
leaf_weight=129.06203781068325 35.238027602434158 210.9690099209547 32.388101607561111 128.55977627635002 57.140060782432556 98.461329057812691 42.579327911138535 237.26906378567219 73.974314823746681 11.75060775876045 227.29671701788902 45.443875625729561 26.719289213418961 153.88566419482231 16.948314592242244 302.63783706724644 13.664898604154585 74.084329828619957 200.26174622774124 77.067616641521454 7.9938397854566565 12.214622527360914 10.353605940937994 111.74204133450985 182.32682056725025 141.23751571774483 142.92001314461231 87.862745866179466 209.80230057239532 45.908753469586372
leaf_count=519 142 846 131 515 229 399 172 964 297 48 910 182 107 618 69 1215 55 308 821 310 32 49 42 450 745 573 573 352 852 184
internal_value=0.000716673 0.015459 -0.0117344 0.00539518 0.00155571 -0.0241265 -0.0328525 0.0348466 -0.00638403 0.00466002 0.0149969 -0.00363832 0.0136942 0.00884336 -0.0265372 -0.00882996 0.00641114 -0.0368074 -0.0323012 0.0428577 0.00372441 -0.0123693 -0.00731972 -0.0163764 -0.0203403 -0.0120049 0.020712 0.0218164 -0.0147134 0.0116231
internal_weight=3147.76 1441.28 1706.49 948.781 823.408 883.081 415.387 492.495 497.8 214.023 459.924 488.856 325.608 268.468 39.0525 360.296 248.955 372.807 298.723 314.337 235.291 314.852 27.3019 467.694 355.952 173.626 178.158 114.582 283.777 174.971
internal_count=12709 5793 6916 3804 3317 3599 1700 1989 2011 862 1843 1961 1306 1077 159 1446 997 1528 1220 1274 942 1264 111 1899 1449 704 715 459 1149 703
is_linear=0
shrinkage=0.05


Tree=8
num_leaves=31
num_cat=0
split_feature=10 6 6 7 16 8 7 8 8 7 17 17 6 6 7 16 16 8 12 7 13 8 12 8 7 6 13 8 12 16
split_gain=209.048 102.16 101.992 29.7278 29.1534 24.1892 21.8698 20.7789 20.4552 14.9116 14.4672 13.6075 13.3687 13.3365 11.3677 14.3099 11.3081 11.2371 11.0971 10.6606 10.2134 10.1821 9.5469 9.30532 9.11569 8.80191 8.79157 8.50401 9.29959 10.4328
threshold=1.0000000180025095e-35 0.81658131512381305 0.90451298567788108 8.0434830437013094 0.61052051580140276 13.428482989026104 9.1950402151557018 35.107751688691202 18.052124982982978 5.9920529048677453 8.1591107871708566 8.1705065023483439 0.6109607744605513 0.92357204497518175 28.961016928124057 0.79857809497033727 0.54899764775514492 41.84206165273428 511.83573822015791 16.451646750289321 6.3130385622796981 50.10934039324686 562.45778961615486 47.575662277921559 5.4216471116857408 0.84154494054645712 4.9803864490933316 23.125767140374506 326.46883513295239 0.83488801007969327
decision_type=2 2 2 2 2 2 2 2 2 2 2 2 2 2 2 2 2 2 2 2 2 2 2 2 2 2 2 2 2 2
left_child=2 8 4 10 11 -6 27 14 -2 12 -3 -1 -7 25 15 -8 -15 20 -13 -10 -12 -18 -11 24 -14 -5 -9 28 -4 -30
right_child=1 3 6 13 5 9 7 26 19 22 17 18 23 16 -16 -17 21 -19 -20 -21 -22 -23 -24 -25 -26 -27 -28 -29 29 -31
leaf_value=0.042730557459130375 0.019699827555438712 0.023894864912828877 0.0016081090437663676 -0.013765674706734485 -0.017814859265426433 0.03288698605692629 -0.015235756428412016 -0.0096210895393494811 0.046207823715910042 0.0025521704029676916 0.0015859155924972867 0.027971658781799837 -0.0036396251441250839 0.014634478400034345 -0.052834688110124289 -0.03855570193296657 -0.013615573522866917 0.050281726796617909 -0.006898098504650921 0.024772036594832056 0.059121484525757245 0.032990408257418218 -0.016430154059007076 0.044630127007492394 0.046864535237203436 0.017458980207221107 0.047331133570032172 -0.0035630172504935984 -0.010981893440863099 -0.02982935923052564
leaf_weight=51.050638064742088 177.95438927412033 210.77403882145882 45.941797941923141 29.20322297513485 192.86984910070896 62.387677237391472 98.281930059194565 34.131141170859337 235.76894299685955 190.30869308114052 227.29871563613415 45.525139197707176 110.26948508620262 46.433468744158745 73.255794525146484 198.94900760054588 301.43225269019604 13.600596740841864 45.74212372303009 76.927267268300056 7.9842017590999594 12.193197712302206 101.59938529133797 13.234393060207365 9.722360357642172 99.35579052567482 8.4547267258167249 111.71078215539455 120.1242728382349 188.85883185267448
leaf_count=205 715 846 187 117 785 250 399 138 964 766 910 183 443 186 308 821 1211 55 184 310 32 49 409 53 39 398 34 450 487 775
internal_value=0.00068176 0.0147115 -0.0111765 0.00512832 0.00147859 -0.0028261 -0.0230117 -0.0313908 0.0332328 0.00310365 0.0142558 0.0220584 0.0137858 -0.0034582 -0.0351928 -0.0308448 -0.00839414 0.00609271 0.0104953 0.0409343 0.00353835 -0.0118036 -0.00405468 0.00484099 0.000452483 0.010366 0.00168584 -0.0155943 -0.0193811 -0.022502
internal_weight=3141.34 1438.93 1702.42 948.275 822.71 680.392 879.708 413.073 490.651 487.522 459.658 142.318 195.614 488.618 370.487 297.231 360.059 248.884 91.2673 312.696 235.283 313.625 291.908 133.226 119.992 128.559 42.5859 466.636 354.925 308.983
internal_count=12709 5793 6916 3804 3317 2745 3599 1700 1989 1960 1843 572 785 1961 1528 1220 1446 997 367 1274 942 1260 1175 535 482 515 172 1899 1449 1262
is_linear=0
shrinkage=0.05


Tree=9
num_leaves=31
num_cat=0
split_feature=10 6 6 7 8 16 13 6 16 16 8 13 7 7 8 7 7 8 17 12 3 17 16 17 11 16 7 6 12 8
split_gain=189.118 93.6726 93.002 29.8856 28.3398 22.8499 17.1598 16.0826 15.5689 15.2298 15.0868 14.7746 13.1581 13.1245 12.4478 12.3714 11.3945 13.1495 11.3092 10.3882 10.7657 10.1219 9.81466 9.76707 9.19932 8.90468 8.82448 8.8187 8.77331 8.65796
threshold=1.0000000180025095e-35 0.77754542421120687 0.79735988536338309 7.3976426060090494 24.281487650216061 0.90500009266689119 5.0188108551165991 0.66405165326009918 0.8728698183358623 0.54899764775514492 35.574569027172835 4.0732731036859873 26.871966944935071 12.946187206949453 35.574569027172835 4.0171440696597793 20.276645183259934 14.01160524975756 8.1591107871708566 619.45296579735043 1.5000000000000002 9.2672440963847258 0.6293912722302708 9.5639337750940694 1.0000000180025095e-35 0.82844492260398528 23.282876945853264 0.95761841047643859 584.84353130154068 18.491975930276201
decision_type=2 2 2 2 2 2 2 2 2 2 2 2 2 2 2 2 2 2 2 2 2 2 2 2 2 2 2 2 2 2
left_child=1 8 7 10 5 6 12 16 19 -5 18 15 21 28 -11 27 17 -2 25 26 -21 24 23 -23 -3 -4 -1 -6 -7 -9
right_child=2 4 3 9 11 13 -8 29 -10 14 -12 -13 -14 -15 -16 -17 -18 -19 -20 20 -22 22 -24 -25 -26 -27 -28 -29 -30 -31
leaf_value=0.028090349491555186 -0.0040490488106921718 -0.013350400705218188 0.035046388777369757 0.019531105332237553 0.034715945538115557 -0.01842450954014305 0.0098768154899786156 0.013114627141385183 -0.00042730754306097827 -0.0087589341362185932 0.042272929898983555 0.015547896654658803 -0.043506912085420568 -0.041225467183718209 0.016867153586831982 -0.018862767426288153 0.018794062918698059 0.050176541140530918 0.0040869913034311169 -0.02186875363315316 0.025829911591081962 -0.051776512970153003 -0.03219442078045795 0.00059567606007081188 0.013032676451914735 0.01247805424095326 -0.0021753157535423328 -0.0059821732885655225 -0.035936684666429554 0.033387563904435077
leaf_weight=147.08893743157387 11.905608624219893 109.75274996459484 69.388045117259026 67.863368645310402 20.709397703409195 228.10952338576317 64.410748943686485 110.77506396174431 265.31010100245476 413.10076852142811 45.214644595980644 71.79405389726162 44.734028726816177 163.31658230721951 53.528583154082298 141.65589432418346 44.335297405719757 183.43375515937805 218.24741378426552 29.637264758348465 19.687907591462135 10.593835473060606 108.1392170637846 55.754106014966965 47.27097125351429 118.09866869449615 28.799562901258469 37.256189212203026 104.18426756560802 100.3952254652977
leaf_count=590 48 446 279 272 83 936 261 445 1067 1659 183 289 189 684 215 574 179 755 874 119 79 43 442 226 192 474 116 150 430 410
internal_value=0.000648718 -0.0106461 0.0140032 0.00539735 -0.0181301 -0.022254 -0.0139701 0.0328136 0.00777978 -0.0026006 0.014877 -0.00390435 -0.0180526 -0.0296193 -0.00581928 -0.0109004 0.0416778 0.0468716 0.011824 0.017448 -0.00283006 -0.0146178 -0.0229059 -0.00776664 -0.00540795 0.0208305 0.0231347 0.00855807 -0.0239151 0.0227528
internal_weight=3134.49 1698.21 1436.29 985.441 1207.68 936.266 440.656 450.845 490.524 534.493 450.949 271.416 376.245 495.61 466.629 199.621 239.675 195.339 405.734 225.214 49.3252 331.511 174.487 66.3479 157.024 187.487 175.889 57.9656 332.294 211.17
internal_count=12709 6916 5793 3956 4945 3849 1799 1837 1971 2146 1810 1096 1538 2050 1874 807 982 803 1627 904 198 1349 711 269 638 753 706 233 1366 855
is_linear=0
shrinkage=0.05


Tree=10
num_leaves=31
num_cat=0
split_feature=10 6 6 8 7 7 6 8 8 8 17 7 0 16 17 7 7 16 2 16 17 0 6 8 7 0 17 6 6 16
split_gain=178.683 103.932 75.7116 36.591 31.7466 30.132 18.4878 18.0018 17.5085 16.3549 13.7656 13.3766 12.4556 11.8961 11.4771 17.3725 10.0036 9.86151 11.0778 9.19713 9.15395 9.1299 11.0003 12.1659 9.44155 8.86999 8.86327 8.75494 8.62009 8.34334
threshold=1.0000000180025095e-35 0.77754542421120687 0.66405165326009918 35.574569027172835 6.1202743893554885 22.471363842806266 0.95086288549012232 25.701559718236542 23.501345732129042 15.368913042391954 8.4918250110679221 10.740613938005302 70.324449836706677 0.77651350846502631 9.231203944298473 24.176406383109736 5.2774992781361432 0.90500009266689119 49734.143820149089 0.93840358585063055 9.0311708696185136 59.944988473311398 0.99285692840576611 3.2980540781415368 9.351242126478752 36.943895911035909 6.9098515794699029 0.88387749361234891 0.95086288549012232 0.68042911539714179
decision_type=2 2 2 2 2 2 2 2 2 2 2 2 2 2 2 2 2 2 2 2 2 2 2 2 2 2 2 2 2 2
left_child=1 9 11 5 7 6 13 17 14 -1 -11 -2 21 -4 15 -6 -15 18 27 25 -21 24 23 -23 -8 -12 -7 -3 -19 -16
right_child=2 4 3 -5 8 26 12 -9 -10 10 19 -13 -14 16 29 -17 -18 28 -20 20 -22 22 -24 -25 -26 -27 -28 -29 -30 -31
leaf_value=-0.0084843570820154948 0.048669469522227837 0.074446352282076592 0.02788220548279649 0.032006209839731736 -0.015069319205731388 0.010776881072320266 0.0088842640396594227 0.01042095140967688 -0.012029778825457546 0.022625646280344136 -0.041168859780662155 0.024181084273041241 0.025164736868128743 0.020662078592536482 -0.020281179612636341 -0.046088880318421684 0.0016226567199018969 -0.0087866013393903923 -0.011494405467271802 -0.035217300748780461 0.0013735561159484485 0.025754443608594232 -0.004134971805335899 -0.059348404398811963 -0.0085240822823677582 0.017068347938278477 -0.020280375392858596 0.0083676101628216634 -0.029554507684625853 -0.040912966327667825
leaf_weight=114.698675096035 140.51854580640793 5.9561726301908484 138.83743965625763 138.10044260323048 198.10855729877949 27.621648892760277 213.78039860725403 95.803295537829399 182.97729608416557 190.0504529774189 6.9770850986242285 92.458365097641945 49.851254299283028 123.0017696171999 61.996373444795609 58.455345585942268 157.11406883597374 83.360490575432777 151.0712648332119 23.160574913024902 65.237299159169197 5.2369418740272549 63.84056955575943 21.198679551482201 122.52918104827404 103.95458607375622 136.48405925929546 31.6444101780653 124.72097618877888 233.76978978514671
leaf_count=463 584 24 560 561 814 111 857 385 742 763 28 377 200 496 254 248 631 341 614 93 262 21 256 85 492 417 550 128 516 978
internal_value=-0.000205102 -0.0110066 0.0128719 0.00779847 -0.0188544 0.0046431 0.00825296 -0.00903131 -0.0254346 0.00810968 0.0129977 0.0389511 0.00151565 0.0159147 -0.0298754 -0.0221368 0.00998306 -0.0137284 -0.00545005 0.00381804 -0.00821339 -0.001248 -0.0153663 -0.0424894 0.0025418 0.0134055 -0.0150529 0.0188349 -0.0212346 -0.0365883
internal_weight=3162.52 1731.94 1430.57 1197.6 1227.86 1059.5 895.39 492.557 735.307 504.079 389.38 232.977 476.437 418.953 552.33 256.564 280.116 396.753 188.672 199.33 88.3979 426.586 90.2762 26.4356 336.31 110.932 164.106 37.6006 208.081 295.766
internal_count=12851 7070 5781 4820 5044 4259 3598 2008 3036 2026 1563 961 1911 1687 2294 1062 1127 1623 766 800 355 1711 362 106 1349 445 661 152 857 1232
is_linear=0
shrinkage=0.05


Tree=11
num_leaves=31
num_cat=0
split_feature=10 6 6 8 8 7 7 16 6 17 8 8 7 16 7 8 0 13 6 17 0 6 8 7 13 7 7 17 7 16
split_gain=161.694 95.4014 69.1301 33.1899 32.182 27.2186 20.5513 18.5769 16.7164 15.8978 15.8565 15.3746 14.1659 14.7348 12.4407 11.3698 11.2428 10.8066 8.59746 8.57493 8.24265 9.94356 10.9985 8.52303 8.12102 9.19974 8.02055 8.01085 7.87575 7.83493
threshold=1.0000000180025095e-35 0.90451298567788108 0.66405165326009918 35.574569027172835 23.311245326407356 22.471363842806266 9.1950402151557018 0.34167977127665661 0.95086288549012232 9.2563955203053752 35.574569027172835 13.526417882195043 25.751134291166359 0.99361365240004351 10.070599249096764 9.6993681878912366 70.324449836706677 1.4614954897909267 0.66155115896203298 6.2859369954398465 59.944988473311398 0.99285692840576611 3.2980540781415368 9.351242126478752 2.1797012032171392 4.3688922990661547 9.2746569542460104 6.9098515794699029 28.961016928124057 0.61358378320586349
decision_type=2 2 2 2 2 2 2 2 2 2 2 2 2 2 2 2 2 2 2 2 2 2 2 2 2 2 2 2 2 2
left_child=1 4 14 5 9 8 -3 -8 15 11 28 26 13 19 -2 -4 20 -17 -14 -6 23 22 -22 29 25 -5 -1 -7 -9 -10
right_child=2 6 3 24 12 27 7 10 16 -11 -12 -13 18 -15 -16 17 -18 -19 -20 -21 21 -23 -24 -25 -26 -27 -28 -29 -30 -31
leaf_value=-0.00048669698880384978 0.047251735284943142 -0.014896118673887597 0.0015862119637982991 0.05253199826703242 0.063108483168312177 0.010237408578297759 0.041642244501815869 -0.031591937612129486 0.03109532319838771 -0.0177203299783927 -0.0035854786721588733 0.010430054323769103 0.0051808376962629299 0.0021669315074568196 0.023798026229316996 -0.0021987450799106334 0.023909728775524396 0.024106892182111962 -0.042634494058475317 0.022380435187638506 0.024458686678385484 -0.0039283339158899403 -0.056458557131399204 -0.0081012175511652306 0.038164648483046931 -0.0030259119677294721 -0.025045549141029095 -0.019291021992603016 -0.050355857550778461 0.0043962065755291484
leaf_weight=69.93329057097435 132.93292000889778 479.86824125051498 112.9990551918745 10.022056773304937 13.917619556188582 27.623293563723564 8.8138067126274091 285.30335476994514 32.384058475494385 192.9561240375042 44.431440427899361 173.10295876860619 22.16731496155262 106.58736805617809 98.388938188552856 45.955440506339073 49.844627529382706 259.52021037042141 16.323934182524681 180.94580656290054 5.2386106252670315 63.838812589645386 21.170141041278839 122.47994753718376 98.543135419487953 29.046654269099236 63.370403081178665 136.31390216946602 69.555907145142555 181.36787942051888
leaf_count=284 558 1968 453 41 56 111 36 1190 130 786 180 698 89 428 403 185 200 1049 66 727 21 256 85 492 403 117 260 550 302 727
internal_value=-0.000195773 -0.0104867 0.0122548 0.00741674 0.00159997 0.00441427 -0.0219109 -0.0301592 0.00784578 -0.00647817 -0.0317441 0.000601457 0.0134665 0.0171137 0.0372761 0.0151369 0.00144014 0.0201495 -0.0150974 0.0252893 -0.00118599 -0.014603 -0.0404073 0.00241526 0.0305166 0.011226 -0.0121616 -0.0143155 -0.0352699 0.0084412
internal_weight=3154.95 1727.28 1427.67 1196.35 839.305 1058.74 887.973 408.105 894.799 499.363 399.291 306.407 339.942 301.451 231.322 418.475 476.324 305.476 38.4912 194.863 426.479 90.2476 26.4088 336.232 137.612 39.0687 133.304 163.937 354.859 213.752
internal_count=12851 7070 5781 4820 3394 4259 3676 1708 3598 2028 1672 1242 1366 1211 961 1687 1911 1234 155 783 1711 362 106 1349 561 158 544 661 1492 857
is_linear=0
shrinkage=0.05


Tree=12
num_leaves=31
num_cat=0
split_feature=10 6 6 8 8 16 12 16 6 8 13 17 17 8 16 16 17 12 2 13 17 17 6 12 12 6 17 0 13 17
split_gain=146.342 86.7923 63.1534 30.6443 26.0228 22.2535 15.3144 14.7993 14.2895 12.7057 12.6874 12.4465 11.1938 10.219 10.0931 9.97084 10.5957 8.66668 8.8405 8.62958 9.06094 8.35947 8.26554 7.90525 7.55805 7.4606 8.14956 7.3378 7.17587 7.16989
threshold=1.0000000180025095e-35 0.77754542421120687 0.66405165326009918 48.28754052246321 23.879201229596891 0.77863133510765292 607.01042945330528 0.6831060561215947 0.33834118862705603 7.1940652914983589 4.0732731036859873 9.2183835466459758 8.6920492078639295 13.783131542985659 0.48010345672381477 0.87831076332396341 8.346084905415319 314.54341752721422 77227.079965768338 5.2395634468666241 7.5010870557856633 5.2342944413927208 0.90612097298126049 770.65696542909257 852.76182609568821 0.82586574597735363 8.1861179027148303 51.072004899636632 5.1371763214088464 9.1313319074137542
decision_type=2 2 2 2 2 2 2 2 2 2 2 2 2 2 2 2 2 2 2 2 2 2 2 2 2 2 2 2 2 2
left_child=1 6 24 5 7 9 8 28 -1 23 14 17 -11 -8 -6 -10 19 18 27 -17 -21 -7 -16 -4 29 -12 -27 -9 -3 -2
right_child=2 4 3 -5 10 21 13 11 15 12 25 -13 -14 -15 22 16 -18 -19 -20 20 -22 -23 -24 -25 -26 26 -28 -29 -30 -31
leaf_value=0.057599598551804645 0.04079586393453824 -0.012478044292553064 0.0027501636240339976 0.040935452107957335 0.027242873989529917 0.041116275704965718 -0.039243232182504757 0.013491596078877495 0.019500609992020468 0.02847989373454354 -0.027334836817806726 -0.030780252680247491 0.0076945969514681098 -0.0011263169392065414 0.0025329306599530519 0.024836244005922822 -0.0074001243478834348 -0.020878902681528193 0.041197852247368612 -0.049602243946664862 0.025670194328093782 -0.0003658603775837218 -0.020234312697964212 -0.060560187810682314 -0.024865024125284695 0.049990523156564687 0.0093712103486065269 -0.031201574783278969 0.018712053323396906 0.01575022626071353
leaf_weight=16.890439137816429 190.93862727284431 182.03282460570335 86.201483845710754 63.212218016386032 16.354711353778839 12.344299554824827 20.892128974199295 17.667474746704102 165.32013964653015 171.67861092090607 9.9528428912162763 384.34768265485764 104.02248445153236 111.0448340177536 56.057658106088638 63.662769347429276 109.55350019037724 295.71478842198849 11.08368346095085 8.9703138172626513 7.2125571221113196 752.12096172571182 138.00777900218964 5.229816496372222 5.0400042831897727 16.186746135354042 52.073707967996597 19.125618264079094 20.519603863358498 33.604215487837791
leaf_count=68 801 746 346 260 66 50 85 73 665 695 40 1617 419 446 226 256 441 1231 46 36 29 3029 562 21 21 65 210 79 83 139
internal_value=-0.000186695 -0.00999096 0.0116707 0.00705564 -0.0172038 0.00516308 0.00747183 -0.0212723 0.0126675 0.015281 -0.00408766 -0.0245986 0.0206376 -0.0071621 -0.0104788 0.010528 0.00269608 -0.0176837 0.00205187 0.0165487 -0.016054 0.000303978 -0.0136578 -0.000871151 0.0356885 0.0131067 0.0190034 -0.0097406 -0.00931833 0.0370476
internal_weight=3147.06 1722.67 1424.39 1194.81 1219.13 1131.6 503.547 930.492 371.61 367.132 288.633 727.939 275.701 131.937 210.42 354.719 189.399 343.592 47.8768 79.8456 16.1829 764.465 194.065 91.4313 229.583 78.2133 68.2605 36.7931 202.552 224.543
internal_count=12851 7070 5781 4820 5044 4560 2026 3875 1495 1481 1169 3046 1114 531 854 1427 762 1429 198 321 65 3079 788 367 961 315 275 152 829 940
is_linear=0
shrinkage=0.05


Tree=13
num_leaves=31
num_cat=0
split_feature=10 6 6 8 8 7 7 16 6 8 17 8 16 7 12 0 8 7 13 12 17 13 7 16 0 2 12 7 7 13
split_gain=132.417 80.1771 57.7145 28.1735 26.8122 24.6589 19.0602 16.4111 14.8354 14.1103 13.4208 13.1498 12.9347 11.7311 11.0583 10.061 10.0277 9.89354 9.76621 8.54454 12.7848 13.0292 8.6459 8.5277 8.49022 7.94258 7.66888 7.52456 7.42264 7.4225
threshold=1.0000000180025095e-35 0.90451298567788108 0.66405165326009918 35.574569027172835 23.311245326407356 22.471363842806266 9.1950402151557018 0.34167977127665661 0.95086288549012232 35.574569027172835 9.2563955203053752 13.526417882195043 0.61358378320586349 10.740613938005302 561.0439377260044 70.324449836706677 9.6993681878912366 26.106427680557044 1.4614954897909267 511.83573822015791 8.1861179027148303 5.5490151559255603 3.3392389461956395 0.99361365240004351 53.179031673775071 59168.916852433198 790.71498612172525 28.961016928124057 2.0672740036131194 2.1797012032171392
decision_type=2 2 2 2 2 2 2 2 2 2 2 2 2 2 2 2 2 2 2 2 2 2 2 2 2 2 2 2 2 2
left_child=1 4 13 5 10 8 -3 -8 16 27 11 -1 -6 -2 24 26 -4 19 -18 20 28 22 -22 -21 -12 -15 -10 -9 -14 -5
right_child=2 6 3 29 12 -7 7 9 15 -11 14 -13 17 25 -16 -17 18 -19 -20 23 21 -23 -24 -25 -26 -27 -28 -29 -30 -31
leaf_value=-0.011160022241289669 0.043449347543316946 -0.013288281029754039 0.0013717867749211147 0.0096170042773863935 0.032606757037314291 -0.013888292807879824 0.039265189397823592 -0.029326891295736041 0.0001931235054001485 -0.0029935953020226507 -0.022366949788065207 0.0097558702012529152 0.085632411390319449 0.041146359004106146 -0.031127324705351248 0.022448821821353066 -0.0024334545794980371 -0.019437885041516289 0.022584899968783469 0.013032769415112095 0.028487708910172618 0.064138039530101221 -0.012395374537519044 -0.013741576012988086 0.0049476906307661427 0.0098704905164987752 -0.031397954366583235 -0.047843897960770439 0.031561609802516967 0.035447597548702907
leaf_weight=132.82414305210114 136.51623798906803 477.14438055455685 112.96883642673492 38.894697546958923 64.171739548444748 163.75029672682285 8.8548669964075071 282.12132127583027 406.05598497390747 44.353402778506279 49.136457368731499 173.0518736988306 7.4304556697607032 30.453847900032997 75.31854535639286 49.800877958536148 45.932443961501122 29.973073408007622 258.73465764522552 69.451433062553406 17.943034648895264 8.7255706638097745 46.304594710469246 52.010996639728546 67.571966171264648 60.879092752933502 20.164703398942947 68.107587516307831 43.531282663345337 97.597472980618477
leaf_count=544 584 1968 453 158 259 661 36 1190 1630 180 201 698 30 126 309 200 185 121 1049 279 72 35 186 209 276 251 81 302 175 403
internal_value=-0.000177982 -0.0095189 0.0111095 0.00670859 0.0015572 0.00394903 -0.0200524 -0.0280524 0.00721747 -0.029563 -0.0058309 0.000673316 0.0123911 0.0341696 -0.0161913 0.00118326 0.0140953 0.00768005 0.0188131 0.0109923 0.0202287 0.00680845 -0.000977575 0.00156782 -0.00655229 0.020299 -0.00130147 -0.0329278 0.0394454 0.0280869
internal_weight=3139.78 1718.03 1421.75 1193.9 837.445 1057.41 880.582 403.437 893.658 394.582 497.903 305.876 339.542 227.849 192.027 476.022 417.636 275.37 304.667 245.397 123.935 72.9732 64.2476 121.462 116.708 91.3329 426.221 350.229 50.9617 136.492
internal_count=12851 7070 5781 4820 3394 4259 3676 1708 3598 1672 2028 1242 1366 961 786 1911 1687 1107 1234 986 498 293 258 488 477 377 1711 1492 205 561
is_linear=0
shrinkage=0.05


Tree=14
num_leaves=31
num_cat=0
split_feature=10 6 6 8 7 8 7 16 7 16 7 16 12 7 7 12 8 6 8 6 7 17 7 17 16 16 17 7 12 12
split_gain=119.86 72.7948 52.7865 26.261 24.8563 24.2322 17.695 13.9762 13.4179 12.3243 11.8997 11.9573 12.3829 11.5667 10.9339 10.8753 10.2252 9.86296 9.8589 9.79075 9.71646 12.9151 12.5168 9.64133 9.17752 8.82787 9.4175 8.80993 8.3084 8.30817
threshold=1.0000000180025095e-35 0.90451298567788108 0.66405165326009918 48.28754052246321 6.050730103441639 23.311245326407356 7.1766137377767762 0.34167977127665661 11.899138938937055 0.75861834438718889 25.751134291166359 0.99361365240004351 830.16798856095613 25.406080328500099 10.070599249096764 414.50962346825264 7.408522646347989 0.95243285935376576 12.099592755847853 0.99063392600748557 29.439268545219942 9.2672440963847258 26.441603422783363 8.5177942630859391 0.60167192282902893 0.72778664989501596 9.3619570736739508 26.441603422783363 207.44730992620592 472.28533756662353
decision_type=2 2 2 2 2 2 2 2 2 2 2 2 2 2 2 2 2 2 2 2 2 2 2 2 2 2 2 2 2 2
left_child=1 5 14 4 9 8 18 -8 -1 -4 11 12 -7 -6 -2 -13 23 -18 28 25 21 27 -23 -11 -10 26 -15 -9 -3 -16
right_child=2 6 3 -5 13 10 7 20 24 16 -12 15 -14 19 29 -17 17 -19 -20 -21 -22 22 -24 -25 -26 -27 -28 -29 -30 -31
leaf_value=0.0007449439222907547 0.042282141924134972 0.030208449027913566 0.026451388461862242 0.037946370905095561 0.0017927960890003524 0.02461315014285323 0.031208856874213698 -0.010774250205246838 0.0079661530735191562 0.01003849041816169 -0.014430266985345139 0.027109216643431695 -0.053372898691976693 0.04031181617329286 0.036293466908356747 -0.0083713542642096708 0.0230288833815817 0.0023474258560732477 -0.0031784389735779275 -0.031414799794040875 -0.043300129965526256 -0.034535089922798565 0.020451692500717863 -0.023419984865185331 -0.021415093751844697 -0.014030045037734718 -0.037750759148247055 -0.057131284938831843 -0.021076006773737197 0.0068824778173296394
leaf_weight=313.40137878060341 128.89754848182201 8.2323005199432355 133.63075529038906 62.442771330475807 544.56503392755985 189.04588733613491 10.601362556219099 165.61309616267681 32.223920226097107 43.95207504928112 38.383058875799179 30.116434812545776 5.2309901863336554 17.418218448758129 43.516554817557335 76.349741876125336 129.24140949547291 104.06719869375229 192.23692184686661 52.665193259716034 75.349672600626945 208.66071689128876 10.889507338404654 42.207379043102264 151.69874197244644 57.328371673822403 4.9648471474647513 10.925093591213225 194.14559707045555 53.572425335645676
leaf_count=1272 558 34 543 260 2193 762 43 691 131 176 155 121 21 70 181 307 526 418 786 214 335 883 47 169 625 231 20 47 810 222
internal_value=-0.000169641 -0.00907073 0.0105803 0.00638141 0.00463722 0.00148096 -0.0191385 -0.0255658 -0.00554664 0.0137012 0.0117868 0.0151329 0.0225133 -0.0014296 0.0327371 0.00166515 0.00836795 0.0138039 -0.0112873 -0.0146858 -0.0268425 -0.0237117 -0.0318078 -0.00635199 -0.0162674 -0.00363293 0.0229965 -0.0136431 -0.0189899 0.0200649
internal_weight=3131.57 1713.1 1418.47 1192.48 1130.04 836.45 876.654 482.039 497.324 453.099 339.126 300.743 194.277 676.942 225.987 106.466 319.468 233.309 394.615 132.377 471.438 396.088 219.55 86.1595 183.923 79.7114 22.3831 176.538 202.378 97.089
internal_count=12851 7070 5781 4820 4560 3394 3676 2046 2028 1832 1366 1211 783 2728 961 428 1289 944 1630 535 2003 1668 930 345 756 321 90 738 844 403
is_linear=0
shrinkage=0.05


Tree=15
num_leaves=31
num_cat=0
split_feature=10 8 8 16 7 16 7 7 8 13 13 16 8 7 12 8 13 0 8 12 2 17 13 2 7 12 5 17 7 12
split_gain=114.991 51.0761 44.465 22.3927 22.3788 21.3932 22.2688 18.944 17.5795 13.9705 13.8764 13.3052 12.9545 11.3389 12.3592 12.1388 11.144 9.83269 9.62431 9.61404 10.1218 9.3218 9.07512 10.8546 9.42958 9.06712 9.01502 11.7996 8.95276 12.799
threshold=1.0000000180025095e-35 11.388073331585874 15.643885931121984 0.94616539800179644 22.75974444456492 0.77404212701586284 4.4741363557705176 20.73207405621995 42.520575436672615 2.1148188506825458 4.2955231410721648 0.6831060561215947 49.193098728286152 1.6593015325769949 441.44689665273171 33.120851857888219 2.3563792815169182 54.217305838913148 17.01392103657032 479.25068556826983 65796.201726943385 8.4918250110679221 1.0145879758242515 71164.444395722341 9.5431829751070349 565.97334414695808 3.5000000000000004 9.4919370521465485 12.699337838875389 505.63114301305626
decision_type=2 2 2 2 2 2 2 2 2 2 2 2 2 2 2 2 2 2 2 2 2 2 2 2 2 2 2 2 2 2
left_child=1 11 7 4 10 6 -4 26 19 -8 13 -1 17 14 -3 21 -10 -5 -12 -7 -21 -16 -19 24 -24 -6 27 -2 29 -13
right_child=2 3 5 12 25 8 9 -9 16 -11 18 28 -14 -15 15 -17 -18 22 -20 20 -22 -23 23 -25 -26 -27 -28 -29 -30 -31
leaf_value=-0.0078462725625480251 0.015993925994581885 0.056557215350427292 0.053224264927718049 -0.020926723879888989 -0.0078521101906343718 0.016512364024846564 -0.0064472372673642338 -0.017207509705506323 0.0057296537076457496 0.028323844035170711 0.043672937238911046 -0.010780997424074755 0.015205395087761807 -0.0016491871690207172 0.035334013565419049 0.053084296893791627 0.044117082955210218 -0.044233564632439951 0.013078194191103633 0.012374039057319701 -0.0092372302721486204 -0.031006481846407436 0.02477687451854765 -0.013764946131285325 -0.009142117133172865 -0.039803607408399 -0.0018423318067399279 -0.009002310454627226 -0.035014852831434622 -0.031028738355606905
leaf_weight=137.93435648083687 221.25016367435455 18.289893701672554 74.101651012897491 238.39068394899368 63.045694649219513 166.86301475763321 37.916359603404999 125.15771228075027 27.413413912057877 121.31718726456165 33.696543917059898 161.9263970553875 41.418599411845207 317.12339049577713 7.4244969189167049 9.9134651124477369 60.921471387147903 14.38570401072502 108.38428407907486 99.234298020601273 119.33302776515484 18.463456675410271 48.247303023934364 104.77262505888939 35.616036236286163 34.274898365139961 295.84748375415802 60.02061165869236 162.29165950417519 150.67104291915894
leaf_count=569 891 74 314 984 261 687 154 507 113 503 136 676 167 1290 30 40 260 60 438 408 489 75 196 429 147 143 1190 241 711 638
internal_value=-0.0012309 -0.00996096 0.00933819 -0.0034847 0.00287795 0.0181889 0.0305814 0.00042666 0.0120855 0.0200442 0.0070459 -0.0215164 -0.0115313 0.00195986 0.0231188 0.00603607 0.0322041 -0.01404 0.0203342 0.00747457 0.000574754 -0.0119805 -0.0059536 -0.0030343 0.0103718 -0.019105 0.00425092 0.01066 -0.025487 -0.0205403
internal_weight=3115.65 1706.27 1409.38 1093.45 610.616 707.1 233.335 702.276 473.765 159.234 513.296 612.823 482.831 371.215 54.0913 35.8014 88.3349 441.412 142.081 385.43 218.567 25.888 203.022 188.636 83.8633 97.3206 577.118 281.271 474.889 312.597
internal_count=12821 7064 5757 4470 2487 2928 971 2829 1957 657 2083 2594 1983 1509 219 145 373 1816 574 1584 897 105 832 772 343 404 2322 1132 2025 1314
is_linear=0
shrinkage=0.05


Tree=16
num_leaves=31
num_cat=0
split_feature=10 8 8 17 16 16 8 16 16 13 8 17 13 17 2 5 8 8 2 0 12 16 13 12 2 13 13 17 12 12
split_gain=104.07 46.5017 40.3534 21.2603 19.5575 16.8145 16.0874 12.2008 11.5766 12.3773 11.7676 10.8508 10.2766 10.2227 13.5656 11.1074 9.64746 9.46774 9.38031 9.15032 9.04939 11.5331 8.77951 8.70129 9.13961 8.49984 7.74205 7.34415 7.32836 7.27826
threshold=1.0000000180025095e-35 11.388073331585874 15.643885931121984 8.1705065023483439 0.77404212701586284 0.63786691948609808 42.520575436672615 0.6831060561215947 0.93362394466097298 2.0088778242145273 45.017073950126225 8.2020454478157081 2.3563792815169182 8.6104936853576248 41690.963518680692 3.5000000000000004 54.250834382652208 11.997983580045302 88287.344103187323 70.324449836706677 719.93245882672272 0.84235522464603474 6.2584667115279986 479.25068556826983 65796.201726943385 7.0009859566000312 2.0327075027991603 6.9983833415815857 690.61249969242567 796.27139978343973
decision_type=2 2 2 2 2 2 2 2 2 2 2 2 2 2 2 2 2 2 2 2 2 2 2 2 2 2 2 2 2 2
left_child=1 7 13 5 11 -3 23 -1 9 -5 29 -4 -8 14 -2 -16 20 -7 -12 26 28 -22 -15 25 27 -6 -17 -25 -11 -10
right_child=2 3 4 8 6 17 12 -9 10 16 18 -13 -14 22 15 19 -18 -19 -20 -21 21 -23 -24 24 -26 -27 -28 -29 -30 -31
leaf_value=-0.007463426149647007 0.0308364519668556 0.029820604249146055 0.039246967898018272 -0.017816541455482827 0.013621467977315997 0.05789958607732975 0.0054478802256344161 -0.02437669207667191 -0.016185837652502713 0.0013526818622392558 -0.00040137152254573257 0.017552569539401663 0.042384910822479541 -0.008861603454174102 0.010874913429192664 -0.028634889265736981 0.035302116051344187 2.9748621613229889e-06 0.062257085595653544 0.01824681722507376 -0.047267659288888278 0.020851762080120313 0.030885240989013331 0.036399333075960542 -0.0087681343265511198 0.076593773474883622 -0.0041104052392234988 0.0042487931803318639 0.040918706410163576 -0.053158062379248396
leaf_weight=137.76385641098022 46.633560910820961 66.544758901000023 124.89700046181679 96.795104742050171 161.00324928760529 7.2657488137483588 27.390322357416153 471.78993999958038 298.01904325187206 254.1571968048811 34.88691383600235 107.02963562309742 60.257698744535446 272.91181874275208 184.41527573764324 46.176879048347473 21.070248261094093 250.8480027616024 7.2070047855377188 31.025441214442253 20.089014753699306 8.9961737692356092 14.638503372669218 23.188365042209625 119.42893995344639 5.5430928170680991 106.17271144688129 75.91162833571434 12.268025651574133 13.933533772826193
leaf_count=569 188 270 529 398 664 30 113 2025 1235 1036 141 442 260 1099 744 186 85 1019 29 125 82 37 59 97 489 23 428 311 50 58
internal_value=-0.00117243 -0.00949066 0.00889037 -0.00331548 0.0173431 0.00741036 0.0115084 -0.0205542 -0.00785305 -0.00216974 -0.0144887 0.0292354 0.030842 0.000405462 0.00543151 0.00221032 0.0026143 0.00163273 0.0103265 -0.00650343 0.000283614 -0.026198 -0.00683819 0.00710789 0.000546403 0.0157173 -0.0115437 0.0117717 0.00317457 -0.0178372
internal_weight=3108.26 1701.63 1406.62 1092.08 704.65 324.659 472.723 609.554 767.422 413.376 354.046 231.927 87.648 701.974 414.424 367.79 316.581 258.114 42.0939 183.375 295.51 29.0852 287.55 385.075 218.529 166.546 152.35 99.1 266.425 311.953
internal_count=12821 7064 5757 4470 2928 1319 1957 2594 3151 1688 1463 971 373 2829 1671 1483 1290 1049 170 739 1205 119 1158 1584 897 687 614 408 1086 1293
is_linear=0
shrinkage=0.05


Tree=17
num_leaves=31
num_cat=0
split_feature=6 10 10 7 8 7 12 0 6 7 6 8 7 16 13 7 12 9 16 6 8 17 0 13 2 17 7 11 7 6
split_gain=117.073 64.9061 32.6364 21.4462 20.6907 20.5463 17.8474 17.5461 13.994 13.0717 11.9234 11.6937 11.5935 11.5897 11.4128 10.8735 10.5985 10.5041 9.43875 9.22166 8.47546 8.63545 8.41243 8.152 8.10473 7.9593 7.69171 7.41948 13.1827 7.40925
threshold=0.78968767317333388 1.0000000180025095e-35 1.0000000180025095e-35 18.645730276093392 42.520575436672615 6.1202743893554885 619.45296579735043 28.465557535070918 0.33834118862705603 30.35621143665696 0.53360147846149475 14.373033657312961 5.0347574264305299 0.94021712886585174 2.0636934050893507 4.5222067298535862 604.78977655534493 5.5000000000000009 0.77863133510765292 0.86150773527201696 31.144954679325473 7.0919815768144607 46.198318927501809 6.7956465703085858 51813.941592610798 5.9944688967974562 1.0006668644577212 1.0000000180025095e-35 2.8579847173982542 0.69937696322228204
decision_type=2 2 2 2 2 2 2 2 2 2 2 2 2 2 2 2 2 2 2 2 2 2 2 2 2 2 2 2 2 2
left_child=2 5 6 14 10 7 8 -2 -1 13 -4 -7 16 26 -3 19 18 -15 -12 -16 21 24 -5 -14 -17 -21 -10 -20 -29 -8
right_child=1 3 4 22 -6 11 29 -9 9 -11 12 -13 23 17 15 20 -18 -19 27 25 -22 -23 -24 -25 -26 -27 -28 28 -30 -31
leaf_value=0.054689578744480938 -0.049949760209649974 -0.0026997641670943335 0.03691695773493598 -0.027110435795092772 0.052904613822622286 -0.026583861477791949 -0.0021228580305199694 -0.0051888410024811494 0.053459730648812098 -0.022650170980328555 0.043102304375921142 -0.013614198952827514 0.0048426326265547928 -0.0023489062302266051 0.042510859890051739 0.054230719257749596 0.055974155205463887 0.054374544658495665 0.016513454969861712 0.058050919406203473 0.023279749146123834 -0.0040854461263119327 -0.0055671598134379276 0.052367726238849811 0.0080306309363632374 0.011612059239274504 0.016502007901496491 -0.078979609062383063 0.031621548503411874 -0.027660607816756968
leaf_weight=17.228337317705154 23.011074796319008 260.46012875437737 79.616895064711571 64.268242686986923 54.707125961780548 391.6179976016283 81.022602707147598 450.93306435644627 15.264506280422209 30.720343261957169 25.562425404787064 312.45953133702278 168.91247569024563 141.50587525963783 34.824661284685135 12.149168163537977 26.266798436641693 8.6611240655183774 34.464038208127022 9.7885090112686139 49.143744274973869 205.42224317789078 153.65285332500935 9.532357305288313 43.415645658969879 160.79220046103001 181.17619253695011 6.1750919520854932 4.7793897390365601 43.732029408216476
leaf_count=70 96 1049 348 261 243 1699 327 1867 62 125 110 1301 696 572 143 49 111 35 145 40 203 825 622 40 175 651 732 26 20 178
internal_value=-0.00111641 -0.00747104 0.013735 0.00193898 0.0242801 -0.0154104 0.00540929 -0.00736209 0.0106214 0.00860934 0.0198728 -0.0208281 0.0149506 0.0113799 0.00583113 0.0101411 0.0288398 0.00092271 0.0187986 0.0190637 0.00423152 0.000644751 -0.0119206 0.00738138 0.0181322 0.0142769 0.0193738 0.00512006 -0.0307248 -0.011075
internal_weight=3101.27 2171.94 929.328 993.917 410.017 1178.02 519.311 473.944 394.556 377.328 355.309 704.078 275.693 346.608 775.996 515.536 97.2477 150.167 70.9809 205.405 310.131 260.987 217.921 178.445 55.5648 170.581 196.441 45.4185 10.9545 124.755
internal_count=12821 8981 3840 4018 1739 4963 2101 1963 1596 1526 1496 3000 1148 1401 3135 2086 412 607 301 834 1252 1049 883 736 224 691 794 191 46 505
is_linear=0
shrinkage=0.05


Tree=18
num_leaves=31
num_cat=0
split_feature=6 10 10 7 7 12 0 7 6 6 16 13 9 7 7 16 13 7 17 13 7 6 16 7 0 17 0 17 12 0
split_gain=106.017 58.8517 29.8385 19.3748 18.7623 16.1388 16.0416 12.6671 11.8992 10.5445 10.7253 10.3186 10.2648 9.84946 9.56995 10.1007 9.3008 9.20711 10.7396 13.2586 9.83921 8.42674 8.00265 9.81168 7.62437 7.27792 7.21755 7.1514 7.13981 7.59915
threshold=0.78968767317333388 1.0000000180025095e-35 1.0000000180025095e-35 18.645730276093392 6.1202743893554885 617.41316024087325 28.465557535070918 22.471363842806266 0.53360147846149475 0.33834118862705603 0.94021712886585174 2.0636934050893507 5.5000000000000009 4.5222067298535862 5.0347574264305299 0.90500009266689119 1.8148100028233152 29.90892561450956 9.3438246929776501 5.0996369466682916 25.093580864008157 0.86150773527201696 0.52218841456307652 9.6205759149175165 46.198318927501809 5.9944688967974562 42.083968132456413 7.0919815768144607 311.66258581130052 44.078132508811485
decision_type=2 2 2 2 2 2 2 2 2 2 2 2 2 2 2 2 2 2 2 2 2 2 2 2 2 2 2 2 2 2
left_child=2 4 5 11 6 7 -2 9 -4 -1 -11 28 -12 21 15 -10 -16 18 -6 20 22 -13 23 -20 -5 -23 -9 -15 29 -3
right_child=1 3 8 24 17 -7 -8 26 14 10 12 13 -14 27 16 -17 -18 -19 19 -21 -22 25 -24 -25 -26 -27 -28 -29 -30 -31
leaf_value=0.056453642735281521 -0.04793459730826554 0.06062470318642698 0.038640699302493274 -0.025817693298196033 -0.011037606900740656 -0.010377189210123478 -0.0049335899589037276 -0.053822555834253341 0.046391936261903147 0.020474859253759362 -0.0016314271956339556 0.040644337264767086 0.057884645420518625 0.01885487810061371 -0.011720127679745198 0.015884656157080967 0.016889383032731332 -0.034354349810329234 -0.052719774520634359 0.0020559319494701279 0.0048771889788659451 0.055625312397195828 -0.034426895141458545 0.017816836363400489 -0.0052902813376446657 0.011041406387812884 -0.003535814682426538 0.00013366799651620985 -0.0057998825288145244 0.0055133053992780954
leaf_weight=14.1486190110445 22.785308182239532 8.2059949338436109 95.746255248785019 64.11586856842041 306.33063155412674 126.61197149753571 450.55981250107288 8.1160319149494153 51.938111290335655 175.50004325807095 127.71362917125225 34.608261913061142 7.6803806126117697 64.389494046568871 34.159911170601845 56.809093564748764 168.70881183445454 95.080603957176208 7.0779630988836315 41.000203222036362 20.281752601265907 9.7066505849361402 214.52422051131725 16.246213674545288 153.61097924411297 160.65096521377563 59.059679865837097 245.50927877426147 225.96117579936981 26.307515799999237
leaf_count=58 96 33 426 261 1289 513 1867 33 226 710 516 143 31 261 139 242 706 431 29 172 89 40 923 67 622 651 240 991 910 106
internal_value=-0.00106296 -0.00711473 0.013096 0.00184405 -0.0146935 0.00514383 -0.00700352 0.0101542 0.0232241 0.0142391 0.0123179 0.00554497 0.00174469 0.00964768 0.0184873 0.0304551 0.012072 -0.0198896 -0.017618 -0.0243569 -0.0285522 0.0181512 -0.0314028 -0.00358823 -0.0113352 0.0135817 -0.00961136 0.00402348 -0.00256463 0.0186167
internal_weight=3093.15 2166.95 926.193 993.066 1173.89 518.83 473.345 392.218 407.362 325.043 310.894 775.339 135.394 514.865 311.616 108.747 202.869 700.542 605.461 299.13 258.13 204.966 237.848 23.3242 217.727 170.358 67.1757 309.899 260.475 34.5135
internal_count=12821 8981 3840 4018 4963 2101 1963 1588 1739 1315 1257 3135 547 2086 1313 468 845 3000 2569 1280 1108 834 1019 96 883 691 273 1252 1049 139
is_linear=0
shrinkage=0.05


Tree=19
num_leaves=31
num_cat=0
split_feature=6 10 10 8 7 7 0 12 8 6 7 8 17 8 6 7 12 16 9 16 0 8 12 13 8 8 16 0 8 7
split_gain=95.9948 53.3744 27.257 19.4111 17.5789 17.1433 14.6796 14.5817 12.1697 11.8328 11.166 10.9316 10.7503 11.1448 10.2279 9.81053 9.91986 9.49965 8.58727 8.27511 8.20648 8.05958 8.02365 7.40777 7.09474 7.09036 7.36386 7.29376 7.05573 6.98126
threshold=0.78968767317333388 1.0000000180025095e-35 1.0000000180025095e-35 42.520575436672615 19.373324417905589 6.1202743893554885 28.465557535070918 619.45296579735043 30.789192095351641 0.33834118862705603 30.35621143665696 14.373033657312961 7.515407583049508 0.67030543939418097 0.53360147846149475 5.0347574264305299 604.78977655534493 0.94021712886585174 5.5000000000000009 0.76634512465460347 54.635191840517443 15.491938160877346 728.3409452840433 6.7956465703085858 28.706583460185151 50.10934039324686 0.92414298352297808 79.980450088054553 11.648873908088854 1.0006668644577212
decision_type=2 2 2 2 2 2 2 2 2 2 2 2 2 2 2 2 2 2 2 2 2 2 2 2 2 2 2 2 2 2
left_child=2 5 7 14 8 6 -2 9 12 -1 17 -7 13 -3 -4 16 19 29 -19 21 -15 -16 -22 -17 -14 26 -8 -28 -9 -11
right_child=1 4 3 -5 -6 11 25 28 -10 10 -12 -13 24 20 15 23 -18 18 -20 -21 22 -23 -24 -25 -26 -27 27 -29 -30 -31
leaf_value=0.050400106590856641 -0.046033964549557251 -0.053545420015075576 0.03393364787061659 0.050322129699358488 -0.011302690475338523 -0.024609804333467895 0.00044347882345864239 -0.047501809211359658 0.020169798077253064 0.050180283486875858 -0.021180371247977364 -0.012010269123546849 -0.00064448144920751203 0.02419193172137438 -0.0020959636049689484 0.0040354056372278969 0.052837355508393719 -0.0021001814923774726 0.049127529464469757 0.0041289251685125905 0.0082664141300572615 0.060075925769104858 -0.042943134588268247 0.049662339306819098 -0.042884078124753727 0.025932772459452261 -0.01101203587689986 -0.06621209723294752 -0.0062407602055607045 0.014844891906272285
leaf_weight=17.010142028331757 22.545894086360931 6.236308589577674 77.849507346749306 53.304451838135719 204.63810402154922 386.4856054186821 219.62037315964699 11.405222147703169 115.0916064530611 15.149149239063261 30.60745769739151 310.42513172328472 461.21869930624962 101.57183001935482 7.6409895867109325 168.45710505545139 25.738105237483978 141.4581485837698 8.6827250570058805 46.052002459764481 84.957325547933578 16.402765169739723 8.4059146344661695 9.3917568475007993 10.160152420401571 18.139965265989304 206.2764501273632 6.1630836278200141 113.16352210938931 180.85789087414742
leaf_count=70 96 25 348 243 831 1699 902 48 478 62 125 1301 1854 411 32 696 111 572 35 195 344 74 34 40 41 73 866 26 457 732
internal_value=-0.00101257 -0.00677597 0.0124845 0.022206 0.0017536 -0.014012 -0.00666247 0.00489167 0.00514578 0.00960854 0.00776684 -0.0189976 0.00257476 0.0122513 0.0179426 0.0133939 0.02629 0.0103264 0.000862344 0.0165422 0.0143562 0.040318 0.00365579 0.00644485 -0.00155492 -0.00469076 -0.00597648 -0.0126134 -0.0100185 0.0175759
internal_weight=3085.11 2161.94 923.171 404.837 992.28 1169.66 472.746 518.334 787.642 393.766 376.755 696.911 672.55 201.171 351.532 273.683 95.8339 346.148 150.141 70.0958 194.935 24.0438 93.3632 177.849 471.379 450.2 432.06 212.44 124.569 196.007
internal_count=12821 8981 3840 1739 4018 4963 1963 2101 3187 1596 1526 3000 2709 814 1496 1148 412 1401 607 301 789 106 378 736 1895 1867 1794 892 505 794
is_linear=0
shrinkage=0.05


Tree=20
num_leaves=31
num_cat=0
split_feature=6 10 10 8 16 12 16 12 8 16 8 12 6 13 6 16 9 8 12 16 0 8 12 8 0 12 2 0 16 2
split_gain=75.5918 38.2068 32.2891 20.6596 15.7217 13.2303 11.6219 10.9768 12.6558 12.645 10.0541 9.78912 9.59709 8.89935 8.88498 8.75063 7.84194 7.7371 7.95854 7.7232 7.99138 7.22418 6.93862 9.81811 6.83412 9.93259 6.8327 6.72732 8.15946 6.65337
threshold=0.91038815000381812 1.0000000180025095e-35 1.0000000180025095e-35 18.052124982982978 0.61052051580140276 571.36670923807901 0.5566880094669423 248.96909059062676 7.3034487308720832 0.93482239229428699 2.5274409762084575 213.73179562266981 0.56673619887979454 2.2686913704763678 0.52861631575535883 0.51872494586185203 1.5000000000000002 60.948170277301472 574.37517770989655 0.90289101752565737 56.282429349909229 48.28754052246321 790.71498612172525 14.270718634956241 55.59102102426202 407.05298907202587 40287.416797022241 59.819865146557468 0.71099778107231226 88991.522149101962
decision_type=2 2 2 2 2 2 2 2 2 2 2 2 2 2 2 2 2 2 2 2 2 2 2 2 2 2 2 2 2 2
left_child=1 4 10 7 -1 14 -4 -3 27 24 11 -2 13 -5 -6 -13 -8 18 -12 20 -16 29 -18 -24 25 -10 -11 28 -9 -14
right_child=2 3 6 12 5 -7 16 8 9 26 17 15 21 -15 19 -17 22 -19 -20 -21 -22 -23 23 -25 -26 -27 -28 -29 -30 -31
leaf_value=0.016072074891928561 0.038540260864922668 0.046158482521109691 0.017170711573602886 0.0042351399929110864 0.021151087288283351 -0.011341609445665026 0.012072072979873638 0.047648089950810366 -0.030500614712674751 0.032523087251265091 -0.009052495354879387 0.017704331210682791 0.013483470400013513 0.045095810776861693 0.021149425120900574 -0.037345219750157435 -0.0029167833910234532 0.021178552974656633 -0.02017384959762597 -0.0051478134785669857 -0.0014856830365323887 0.040675344203188073 -0.054187056863489437 0.004209362385738138 0.029375460995189298 0.018593632096197587 -0.0075316493471664124 -0.044054946297553028 -0.018232995379020105 0.037229253070291402
leaf_weight=147.6452598720789 5.0780138075351706 17.350833341479301 89.66824959218502 15.889048457145689 59.386526271700859 241.96770092844963 85.024451330304146 5.9825958311557796 13.677854299545286 11.983483195304869 464.78856006264687 7.879266455769538 198.76547698676586 82.596722617745399 73.159656599164009 86.135262444615364 520.6813777089119 17.053422883152962 246.00680090487003 243.41101324558258 83.498279675841331 37.409028425812721 16.053446739912037 13.047884002327917 79.089101999998093 41.748051464557648 95.460438996553421 16.935514882206917 21.918694168329239 34.640060037374496
leaf_count=602 22 71 363 71 241 996 344 24 56 49 1985 33 840 377 298 383 2106 69 1060 1000 341 167 65 53 325 171 388 68 88 146
internal_value=0.000381682 0.00829655 -0.00738574 0.0171902 0.00124248 -0.00187906 0.000320796 0.00754018 0.00520381 0.00972524 -0.0141374 -0.0290792 0.0251377 0.0385036 0.0031043 -0.0327316 -0.0020593 -0.0121031 -0.0129016 0.000425422 0.00908497 0.020277 -0.00424473 -0.0280044 0.0199409 0.00647829 -0.00306425 -0.0191958 -0.00410677 0.0170076
internal_weight=3073.93 1522.52 1551.42 673.447 849.068 701.423 724.475 304.147 286.796 241.959 826.941 99.0925 369.3 98.4858 459.455 94.0145 634.807 727.849 710.795 400.069 156.658 270.815 549.783 29.1013 134.515 55.4259 107.444 44.8368 27.9013 233.406
internal_count=12802 6319 6483 2841 3478 2876 2931 1240 1169 989 3552 438 1601 448 1880 416 2568 3114 3045 1639 639 1153 2224 118 552 227 437 180 112 986
is_linear=0
shrinkage=0.05


Tree=21
num_leaves=31
num_cat=0
split_feature=6 10 10 6 16 17 16 16 17 17 16 12 17 0 2 6 17 9 0 13 12 2 17 13 6 17 13 12 6 0
split_gain=68.4041 34.7352 29.3105 17.2733 14.1968 12.6274 11.942 10.5016 12.5212 9.7979 8.60183 10.4258 8.50447 8.42746 9.8723 9.37073 8.11284 7.46675 11.7113 8.95547 7.2941 7.71953 10.0354 13.9109 9.60614 14.1801 7.56537 7.17775 7.04503 11.0198
threshold=0.91038815000381812 1.0000000180025095e-35 1.0000000180025095e-35 0.56673619887979454 0.61052051580140276 8.6257129448482335 0.84897523890077309 0.5566880094669423 6.9555040623233042 9.0963821753272445 0.74729317384847838 741.54801959909526 8.0678094722601781 80.95629825013846 62111.007759495616 0.79376756825433359 6.171187803383769 5.5000000000000009 53.501588993082983 3.9996468935393445 541.66385542440514 72071.095592588259 7.4873182811037617 5.081536858569593 0.73671577109860287 8.2957039834025785 5.5490151559255603 248.96909059062676 0.76270903820876412 37.508017781836578
decision_type=2 2 2 2 2 2 2 2 2 2 2 2 2 2 2 2 2 2 2 2 2 2 2 2 2 2 2 2 2 2
left_child=1 4 10 -3 16 20 9 -4 -9 -5 -2 17 -13 14 15 -11 -1 -12 19 -19 21 22 23 -6 25 -23 -24 -8 29 -29
right_child=2 3 7 6 5 -7 27 8 -10 13 11 12 -14 -15 -16 -17 -18 18 -20 -21 -22 24 26 -25 -26 -27 -28 28 -30 -31
leaf_value=0.073047342604124127 -0.0053739167494843768 0.03428158307930456 0.016333136896202274 0.027329199214629857 0.016359809783983211 -0.0078717282629215974 0.036227228200291915 0.01359344284298639 -0.0051282228565460389 -0.0107399356715988 -0.016120127426340329 0.019487904880327412 -0.04731382573154614 0.061220463147771499 -0.021238822713902511 0.054419822001044477 0.012897461973279354 -0.047699144300537615 0.048607527561347133 0.028937991068746945 -0.0043592300176008699 0.025522093354583403 0.025132889424120543 -0.048811516398027471 -0.019851623780891156 -0.050675648422174979 0.071287666941955041 0.056784056446931686 -0.0016246825294502832 0.0087127171401080693
leaf_weight=5.8367354124784461 234.07871340215206 112.49742968380451 89.556067958474159 175.27497132122517 39.137883573770523 384.65848480165005 19.235356047749519 107.5241407752037 527.20051071047783 10.739925026893617 515.95956438779831 5.394609883427619 40.786167785525322 5.7253982573747626 30.232370004057884 11.347401291131971 141.73243841528893 9.613706901669504 11.676630139350889 6.3165952712297431 116.04214926064014 41.527361288666725 55.864158853888512 10.354329124093054 35.612722396850586 7.1581406593322745 10.556111484766005 13.333813920617102 179.45607100427151 112.58155108988285
leaf_count=24 980 515 363 740 159 1585 80 436 2132 46 2249 23 180 24 125 46 578 42 51 27 474 168 229 42 147 29 43 57 731 477
internal_value=0.000363691 0.00790225 -0.00703267 0.0164085 0.0011811 -0.00178654 0.0128046 0.000304789 -0.00195672 0.0214328 -0.0134835 -0.0167023 -0.0395104 0.00362802 -0.00267438 0.022736 0.0152765 -0.0147646 0.0105697 -0.0173114 0.00561488 0.0113959 0.0197686 0.00272523 -0.00011683 0.0143189 0.0324682 0.00660283 0.00473679 0.0138032
internal_weight=3067.01 1518.9 1548.11 670.424 848.481 700.911 557.927 724.281 634.725 233.32 823.826 589.747 46.1808 58.0451 52.3197 22.0873 147.569 543.566 27.6069 15.9303 316.253 200.211 115.912 49.4922 84.2982 48.6855 66.4203 324.607 305.371 125.915
internal_count=12802 6319 6483 2841 3478 2876 2326 2931 2568 981 3552 2572 203 241 217 92 602 2369 120 69 1291 817 473 201 344 197 272 1345 1265 534
is_linear=0
shrinkage=0.05


Tree=22
num_leaves=31
num_cat=0
split_feature=6 10 10 8 7 16 7 7 9 17 7 12 12 8 17 8 16 7 8 12 17 7 12 12 0 15 17 12 8 13
split_gain=61.8914 31.5547 26.602 18.4962 13.9392 12.8249 12.6414 11.9712 13.6161 11.405 9.82362 13.1165 10.8992 11.1468 9.28011 12.1414 11.6753 12.3108 9.12183 9.83709 9.01747 8.43294 8.26603 7.64463 8.39402 7.55857 7.43395 7.42146 10.6888 8.86025
threshold=0.91038815000381812 1.0000000180025095e-35 1.0000000180025095e-35 18.052124982982978 28.961016928124057 0.61052051580140276 20.919258129462467 7.3976426060090494 1.5000000000000002 8.6257129448482335 15.449029530703735 261.27845007371951 346.06456466575941 7.408522646347989 6.9338340336903332 32.147519908570708 0.59535018440452891 24.808623926555672 2.6680096497408723 261.27845007371951 7.0919815768144607 10.070599249096764 574.37517770989655 507.07489652388654 51.685496699778355 1.0000000180025095e-35 6.171187803383769 503.89374643347952 59.347072226341801 4.1134077584324897
decision_type=2 2 2 2 2 2 2 2 2 2 2 2 2 2 2 2 2 2 2 2 2 2 2 2 2 2 2 2 2 2
left_child=1 5 4 10 18 26 20 8 -4 21 11 -3 -13 -14 -9 16 23 -18 19 -2 -5 -7 -23 -16 -25 -24 -1 -20 29 -29
right_child=2 3 7 6 -6 9 -8 14 -10 -11 -12 12 13 -15 15 -17 17 -19 27 -21 -22 22 25 24 -26 -27 -28 28 -30 -31
leaf_value=0.070116932430004261 0.03077871737584513 0.060085287444514225 0.033381300421019243 0.040503882040936245 -0.03400417908069673 0.012690623196396487 0.003447931706809561 0.011671558275695 0.0033655678707794293 -0.0074851415360020629 -0.0075346279703535305 -0.025527108860182991 -0.015170971087878861 0.018463729380733297 0.0335309091250868 0.014609917257240182 -0.011253455855646811 -0.038790369041286923 -0.0032850073699784033 -0.029996423233263916 0.021760150285815877 0.0042517188869983713 -0.01335043476789978 -0.048473761697115092 0.013786965961620155 -0.072696965922673093 0.012258330233782276 -0.019428856821925744 0.041672670741216902 0.0012354719782258058
leaf_weight=5.7781036943197241 7.2073616832494727 13.456055641174315 43.563581764698029 93.364734038710594 71.176434233784676 174.55424951016903 66.044354394078255 65.21351470053196 284.73898407816887 384.30794072151184 88.093024641275406 20.42347064614296 29.407212227582932 151.72683028876781 20.133256629109383 46.863229960203171 188.1907274723053 51.748633429408073 318.55885724723339 87.378950521349907 205.18607014417648 98.543139055371284 36.745370984077454 8.4132195711135882 15.183398485183714 6.2825648039579383 141.66770996153355 263.50473120808601 8.4259965568780881 64.587951987981796
leaf_count=24 31 56 177 425 336 711 276 263 1152 1585 356 84 118 626 81 191 758 214 1351 388 900 403 151 34 61 26 578 1137 34 275
internal_value=0.000346392 0.00752516 -0.00669619 0.0156551 -0.0128584 0.00112285 0.0232428 0.000289736 0.00734846 -0.00169853 0.00652813 0.0122898 0.00909892 0.0130031 -0.00556603 -0.00896698 -0.012862 -0.0171924 -0.0108507 -0.0253654 0.0276218 0.00533614 -0.00373178 0.0108987 -0.00841169 -0.0220157 0.0145257 -0.00875489 -0.0139329 -0.0153609
internal_weight=3060.47 1515.58 1544.89 667.702 820.84 847.879 364.595 724.049 328.303 700.433 303.107 215.014 201.558 181.134 395.746 330.532 283.669 239.939 749.664 94.5863 298.551 316.125 141.571 43.7299 23.5966 43.0279 147.446 655.078 336.519 328.093
internal_count=12802 6319 6483 2841 3552 3478 1601 2931 1329 2876 1240 884 828 744 1602 1339 1148 972 3216 419 1325 1291 580 176 95 177 602 2797 1446 1412
is_linear=0
shrinkage=0.05


Tree=23
num_leaves=31
num_cat=0
split_feature=17 7 8 8 13 16 7 13 16 8 16 16 10 17 8 8 13 7 13 12 7 17 4 0 10 13 8 13 8 16
split_gain=54.3473 29.8316 22.3726 14.6657 13.0816 12.6219 12.2944 13.5225 12.2915 9.86389 9.98961 9.58119 8.71587 8.26933 8.188 7.79439 11.7728 8.64764 11.3299 9.57177 8.84676 8.44024 12.6423 8.40892 8.57765 7.73265 7.46611 10.041 8.33557 8.08753
threshold=8.6257129448482335 11.773972626093164 19.266361657730837 35.107751688691202 2.0636934050893507 0.82230619869234889 12.946187206949453 5.4334823367777494 0.76127660301502997 11.648873908088854 0.86560206654123584 0.62611756754224479 1.0000000180025095e-35 8.2690451143977963 51.416095272541156 49.193098728286152 3.3974917213796414 20.276645183259934 2.0811476535869495 590.7590836228826 18.992071299909764 8.7901080745230225 1.5000000000000002 35.092112125716604 1.0000000180025095e-35 4.0002548527699684 12.099592755847853 4.4262284896210486 17.916511291520042 0.73822156519078153
decision_type=2 2 2 2 2 2 2 2 2 2 2 2 2 2 2 2 2 2 2 2 2 2 2 2 2 2 2 2 2 2
left_child=1 3 6 5 -3 12 7 11 -4 -6 13 -2 -1 25 -12 17 -17 20 19 -19 21 22 -10 24 -23 -11 27 -13 29 -28
right_child=2 4 8 -5 9 -7 -8 -9 15 10 14 26 -14 -15 -16 16 -18 18 -20 -21 -22 23 -24 -25 -26 -27 28 -29 -30 -31
leaf_value=0.0078805322269365641 0.0041809921269239901 -0.014884542626450252 0.012021608900303182 0.027554457483127681 -0.0090898338483161017 0.0050651204116609807 -0.01919297336766991 0.014034408893818887 -0.013033382446117554 0.012190442802699913 -0.0039699935790561258 -0.013891022061427595 0.025170345341717876 -0.011056353310985187 0.035822763982526859 -0.0057396113464879446 0.038841874093686793 0.039229572333060569 -0.036182932954436135 -0.044673526987186796 0.051008766025257939 -0.051323302311323649 -0.1053272746251359 0.001259286158392864 0.0074010445643137614 0.039326995274571466 -0.031647278080353065 -0.043086484585675155 -0.03078200710928174 0.006438434175925563
leaf_weight=123.93529850244522 104.21781742572784 145.2632192671299 185.99505995213985 139.37693150341511 127.62897363305092 495.1890777349472 308.64531165361404 67.971316292881966 15.474504023790361 62.648850336670876 151.17618930339813 289.75605976581573 176.97540129721165 20.536063715815544 14.136166825890539 35.103288903832436 25.613833710551262 10.867620378732679 45.212043836712837 4.9463114440441123 7.4614213407039633 16.068372175097466 4.8806641548871985 235.07378916442394 10.143883362412454 45.186254426836967 15.934313520789145 32.781994745135307 23.432387158274651 111.31482982635498
leaf_count=508 427 605 770 605 536 2056 1343 281 64 260 627 1229 752 85 61 145 107 46 189 21 31 67 20 971 42 189 65 139 97 464
internal_value=0.000329871 0.0071086 -0.00623537 0.0125924 -0.00194567 0.00997287 -0.0109852 -0.00706014 0.0013573 0.00251548 0.00755892 -0.00954323 0.0180492 0.0180235 -0.000567241 -0.00347057 0.0130673 -0.00633846 -0.0234415 0.0129862 -0.00272822 -0.00415186 -0.0351632 -0.00173596 -0.0285976 0.0235615 -0.0125657 -0.0168584 -0.00337719 0.00166929
internal_weight=3052.95 1502.05 1550.89 935.477 566.576 796.1 954.054 645.409 596.841 421.312 293.684 577.437 300.911 128.371 165.312 410.846 60.7171 350.129 61.026 15.8139 289.103 281.641 20.3552 261.286 26.2123 107.835 473.22 322.538 150.682 127.249
internal_count=12802 6284 6518 3921 2363 3316 4045 2702 2473 1758 1222 2421 1260 534 688 1703 252 1451 256 67 1195 1164 84 1080 109 449 1994 1368 626 529
is_linear=0
shrinkage=0.05


Tree=24
num_leaves=31
num_cat=0
split_feature=6 10 10 8 12 6 17 12 8 16 16 17 8 12 16 16 8 2 13 0 13 13 17 4 6 13 12 13 6 2
split_gain=54.0978 27.6631 23.2447 16.184 11.9719 12.3806 9.05972 8.70335 10.1368 10.426 8.40802 10.0238 8.37755 8.38236 7.88046 7.87115 7.81864 9.54879 11.4229 7.70523 7.01774 7.0868 6.74392 7.57719 6.67025 7.41192 7.23651 6.64043 7.46901 6.53238
threshold=0.91038815000381812 1.0000000180025095e-35 1.0000000180025095e-35 18.052124982982978 607.01042945330528 0.6109607744605513 6.9098515794699029 248.96909059062676 7.3034487308720832 0.93482239229428699 0.5566880094669423 6.9555040623233042 2.5274409762084575 213.73179562266981 0.51872494586185203 0.90289101752565737 31.753040938512701 51813.941592610798 3.1121991884449636 32.870774304300419 1.5553463918780952 6.5078560642176582 8.5614080909916748 1.0000000180025095e-35 0.57039417668449377 2.2855045161814034 516.71140469592899 5.4989558447048106 0.69104953279511794 81680.031725427645
decision_type=2 2 2 2 2 2 2 2 2 2 2 2 2 2 2 2 2 2 2 2 2 2 2 2 2 2 2 2 2 2
left_child=1 4 12 7 5 19 -5 -3 -9 -10 -4 -12 13 -2 -15 20 -13 -18 -19 -1 -7 27 23 -17 25 26 -8 28 -22 -30
right_child=2 3 10 6 -6 15 24 8 9 -11 11 16 -14 14 -16 22 17 18 -20 -21 21 -23 -24 -25 -26 -27 -28 -29 29 -31
leaf_value=0.077030351006696585 0.036388425498709485 0.040877750157721569 0.014619332909226346 0.034986324482852868 -0.0088363714836549381 -0.012459550296969787 -0.054045025569928511 -0.017764914779679508 0.017482096962478599 -0.0034643279955401383 0.012154689777611553 -0.0069962433788405345 -0.010211447090631482 0.018511216132224048 -0.03388322777948985 -0.018175679244086043 0.049001031520685856 -0.015015918817062327 0.031931432540729367 0.015010991596758547 -0.011254829217117309 -0.026777638940966006 -0.01284528687978518 0.013020242436646718 0.012662103701695735 0.038683854416552879 0.033513391011988462 0.044526180905470232 0.022176239409434612 -0.0022545302309282408
leaf_weight=5.1880803406238547 5.1152948141098014 17.028153702616692 89.205222576856613 96.107585743069649 224.9296647310257 38.328416436910629 4.6296323984861356 44.77010115981102 133.30126962065697 107.16677378118038 107.24539475142956 456.44766780734062 719.48341943323612 7.8508823513984671 83.564949050545692 26.977710634469986 13.358294472098349 35.822165712714195 20.298495426774025 144.34490109980106 32.16972553730011 11.725316077470778 139.28286792337894 69.896618738770485 202.42043849825859 52.763043478131294 4.8130891174077988 15.597669646143911 100.15804027020931 37.645367160439491
leaf_count=21 22 71 363 439 928 157 21 180 552 437 436 1846 3114 33 383 111 55 147 84 589 131 48 579 286 870 249 22 64 410 154
internal_value=0.000313775 0.00703939 -0.00628441 0.0146871 0.0010477 0.00462595 0.021838 0.00615305 0.00408006 0.00814713 0.000247881 -0.00177686 -0.0120671 -0.0258982 -0.0293835 0.000652355 -0.00461774 0.011008 0.00196465 0.0171628 0.00711796 0.0109212 -0.00579866 0.00433275 0.0170627 0.0313825 -0.00941526 0.0133033 0.0104381 0.0155022
internal_weight=3047.64 1509.24 1538.39 663 846.244 621.315 360.734 302.266 285.238 240.468 722.377 633.172 816.015 96.5311 91.4158 471.782 525.927 69.479 56.1207 149.533 235.625 197.296 236.157 96.8743 264.626 62.2058 9.44272 185.571 169.973 137.803
internal_count=12802 6319 6483 2841 3478 2550 1601 1240 1169 989 2931 2568 3552 438 416 1940 2132 286 231 610 964 807 976 397 1162 292 43 759 695 564
is_linear=0
shrinkage=0.05


Tree=25
num_leaves=31
num_cat=0
split_feature=6 10 10 7 7 7 17 11 7 13 6 13 2 6 12 17 12 6 6 6 2 5 2 6 5 2 12 12 12 6
split_gain=63.3043 30.9471 29.5879 15.0577 14.0104 10.538 10.2674 10.0082 9.51908 9.46039 10.2193 9.13527 8.59538 9.18428 8.54921 8.12729 9.17936 7.94058 8.01719 7.56541 6.94802 6.70461 6.50303 6.35908 7.26852 8.7699 6.83931 6.34657 9.8302 6.31597
threshold=0.91038815000381812 1.0000000180025095e-35 1.0000000180025095e-35 4.4238280765258482 11.899138938937055 28.961016928124057 6.7304768818114455 1.0000000180025095e-35 25.751134291166359 2.3563792815169182 0.76047361692852866 2.4492302499805363 110651.69683122037 0.57365422405700783 723.94789029839421 7.787527139553104 429.10351624708954 0.83616949883003999 0.84982729566794146 0.50456018558828419 65989.948372524159 2.5000000000000004 77840.368270372841 0.84538436833270059 2.5000000000000004 67828.9985101153 474.09214155189733 207.44730992620592 179.10190906714072 0.57897643993255643
decision_type=2 2 2 2 2 2 2 2 2 2 2 2 2 2 2 2 2 2 2 2 2 2 2 2 2 2 2 2 2 2
left_child=2 5 4 19 12 27 -3 9 14 17 -11 -12 13 -1 -8 16 21 22 -19 -4 -20 -9 -5 -13 25 -25 -26 28 -2 -17
right_child=1 6 3 7 -6 -7 8 15 -10 10 11 23 -14 -15 -16 29 -18 18 20 -21 -22 -23 -24 24 26 -27 -28 -29 -30 -31
leaf_value=0.021134537503948364 -0.0079852146292084033 0.01576731027105813 0.05237793547293338 -0.037850147848216741 -0.0075422304850296523 -0.032021676352484117 0.0023652676481824243 -0.012713809636972957 -0.019377588722689024 0.019266319097416561 0.04444857668095039 -0.019066027987077554 -0.039320678972207937 0.0038025408928218964 -0.018283004122563212 0.069449071721062169 -0.0073441177931732786 0.0653378279503318 0.024091065526971378 0.02283612981417181 -0.021887984815095504 0.047129211641070499 0.001780563445298736 0.015757132769864735 0.049497068013676988 -0.069150289693101705 0.0010205281413773395 -0.012792950986501656 0.058078507652762734 0.027199499581557332
leaf_weight=93.35664065182209 18.557425633072857 95.790319696068764 24.451825380325317 28.487392842769623 297.18421377241611 71.327584594488144 510.5730362534523 6.2580392211675671 68.6468266248703 138.22097484767437 9.6864825785160047 48.177307143807411 10.238838836550711 421.66793459653854 55.58795753121376 10.417343914508818 36.603726610541344 5.1884949058294287 14.771731048822401 190.62951058149338 18.514712572097778 18.566426172852516 16.259215384721756 6.317619323730467 12.221669748425485 5.8640217483043671 17.979959309101105 716.8555014282465 8.0837236195802671 58.634968370199203
leaf_count=382 78 391 124 119 1233 345 2066 27 284 613 40 198 42 1726 225 48 158 21 60 832 75 81 68 26 50 24 73 3103 34 242
internal_value=0.000125885 -0.00696376 0.00748072 0.015304 0.00113372 -0.0136636 0.00050845 0.0101237 -0.00179406 0.00538614 0.0104515 -0.00170244 0.00604242 0.00694425 0.000337937 0.0218037 0.00857319 -0.0091284 0.00752755 0.0261946 -0.00148358 0.0320433 -0.0234499 -0.00663882 0.00748726 -0.0251158 0.0206375 -0.0119024 0.0120605 0.0335733
internal_weight=3035.12 1545.42 1489.7 667.251 822.448 814.824 730.598 452.17 634.808 321.69 238.468 100.247 525.263 515.025 566.161 130.481 61.4282 83.2215 38.4749 215.081 33.2864 24.8245 44.7466 90.5606 42.3833 12.1816 30.2016 743.497 26.6411 69.0523
internal_count=12788 6526 6262 2879 3383 3560 2966 1923 2575 1367 1024 411 2150 2108 2291 556 266 343 156 956 135 108 187 371 173 50 123 3215 112 290
is_linear=0
shrinkage=0.05


Tree=26
num_leaves=31
num_cat=0
split_feature=6 10 10 8 7 8 7 7 17 11 7 16 8 17 13 12 7 7 0 12 7 17 8 16 13 16 12 13 0 16
split_gain=57.2878 28.0918 26.9009 21.6763 13.8158 13.193 9.77396 9.53565 9.27883 8.993 8.6184 8.59709 8.65486 7.86614 7.73576 7.71881 7.6981 8.13725 7.49119 7.46153 7.43377 7.40755 7.18918 7.24776 6.91549 6.87651 14.9568 11.2617 8.15158 7.19412
threshold=0.91038815000381812 1.0000000180025095e-35 1.0000000180025095e-35 42.520575436672615 4.4238280765258482 23.311245326407356 29.439268545219942 25.751134291166359 6.7304768818114455 1.0000000180025095e-35 25.751134291166359 0.796179663240973 25.701559718236542 7.787527139553104 1.9382368946372937 723.94789029839421 11.899138938937055 11.264071752749555 60.244604417269919 852.76182609568821 6.4556094917085201 9.2436396378328443 4.1457311400551999 0.66065515848747203 4.9803864490933316 0.99997719903227156 461.82253963640557 4.0732731036859873 59.487965412017395 0.95096329662653767
decision_type=2 2 2 2 2 2 2 2 2 2 2 2 2 2 2 2 2 2 2 2 2 2 2 2 2 2 2 2 2 2
left_child=2 6 5 4 22 16 11 25 -3 14 15 -2 -13 -11 20 -10 17 21 -14 -16 -6 -1 -4 -24 -15 29 27 28 -27 -7
right_child=1 8 3 -5 9 7 -8 -9 10 13 -12 12 18 24 19 -17 -18 -19 -20 -21 -22 -23 23 -25 -26 26 -28 -29 -30 -31
leaf_value=0.0053684116553588644 -0.0040081805334345215 0.014999437362610779 -0.078796651261913819 0.040304587481640244 -0.065162071173917077 0.013804987358457813 -0.031232854389576716 -0.015242186260395777 0.0022471118790036455 0.0038000519679830952 -0.018462450699886109 -0.018546123071442509 -0.010202097893857814 0.02205136323600955 0.0065139399755786247 -0.017376691624506054 -0.012494966315257226 0.045073011094990595 0.021781656039791913 -0.054653372547048253 -0.0088560789183700309 -0.0106048217597003 0.041347291781781433 0.018083842634797353 0.065112311539079579 0.024820450682459399 -0.014739606340574833 0.054787628516972879 -0.040603111177035488 0.04445588110294648
leaf_weight=185.14850050210953 258.25508309900761 95.662752419710159 1.7358269244432438 73.039006769657135 6.7757388651370993 175.93299040198326 67.62716306746006 36.717751994729042 510.5492121130228 53.74323682487011 68.452066212892532 392.74417085945606 67.931620210409164 51.446538597345352 228.34577813744545 55.563488766551018 176.190439209342 9.9423317909240705 25.061790019273758 5.0970240682363501 43.464542731642723 119.38222703337669 43.456065788865089 145.85508498549461 11.387699812650679 12.584769368171694 59.448557451367378 17.559739857912064 7.6586403250694266 21.48142971098423
leaf_count=756 1084 391 7 350 28 719 332 150 2066 230 284 1756 284 215 966 225 742 41 104 21 177 494 201 636 48 51 241 71 31 87
internal_value=0.000120317 -0.00663199 0.00712453 0.0146069 0.0114327 0.0010776 -0.0130336 0.0087852 0.0004832 0.00615246 -0.00170517 -0.0113794 -0.0152985 0.0178437 0.00134803 0.000321052 -0.00412795 0.000559848 -0.00158245 0.0051784 -0.0164499 -0.00089342 0.0224952 0.0234239 0.0298555 0.0117792 0.000896675 0.025486 6.89124e-05 0.0171402
internal_weight=3028.24 1541.85 1486.39 664.347 591.308 822.047 811.62 331.384 730.228 400.261 634.565 743.993 485.738 116.577 283.683 566.113 490.663 314.473 92.9934 233.443 50.2403 304.531 191.047 189.311 62.8342 294.666 97.2517 37.8031 20.2434 197.414
internal_count=12788 6526 6262 2879 2529 3383 3560 1350 2966 1685 2575 3228 2144 493 1192 2291 2033 1291 388 987 205 1250 844 837 263 1200 394 153 82 806
is_linear=0
shrinkage=0.05


Tree=27
num_leaves=31
num_cat=0
split_feature=6 10 10 7 7 7 17 12 2 7 2 6 6 16 12 16 11 13 6 2 6 13 6 17 2 6 2 2 12 14
split_gain=51.8552 25.5124 24.4484 12.7586 11.6075 9.0549 8.3858 8.35803 8.10663 7.80319 7.75667 8.09986 7.29464 7.25048 6.96989 6.84547 6.84016 7.63637 8.01605 8.44796 7.60649 10.7158 6.7346 6.98806 6.68577 6.27977 8.01974 5.79763 6.56179 6.5054
threshold=0.91038815000381812 1.0000000180025095e-35 1.0000000180025095e-35 4.4238280765258482 11.899138938937055 28.961016928124057 6.7304768818114455 810.51388537236096 33801.795287763467 25.751134291166359 110651.69683122037 0.57365422405700783 0.50456018558828419 0.796179663240973 723.94789029839421 0.63207543226265883 1.0000000180025095e-35 2.3563792815169182 0.83616949883003999 65989.948372524159 0.7465077009570048 3.1903522687675836 0.57897643993255643 6.0364640650584311 77840.368270372841 0.8061710580414414 95963.492538914361 55726.781605874647 222.61370833893744 1.0000000180025095e-35
decision_type=2 2 2 2 2 2 2 2 2 2 2 2 2 2 2 2 2 2 2 2 2 2 2 2 2 2 2 2 2 2
left_child=2 5 4 12 10 13 -3 8 -5 14 11 -1 -4 -2 -8 -14 17 18 24 -20 -19 -22 -18 -24 -10 -23 -27 -6 -29 -30
right_child=1 6 3 7 27 -7 9 -9 16 -11 -12 -13 15 -15 -16 -17 22 20 19 -21 21 25 23 -25 -26 26 -28 28 29 -31
